1000 100
的 -6.5913734 2.9142668 0.2719499 4.858086 2.972185 2.201271 -4.5613337 0.67867196 4.611205 -3.4083285 -2.8939047 1.457901 4.478507 -2.54623 8.753386 4.028583 -3.478359 -4.2220387 -0.26509508 -5.2257366 2.5980968 0.66559356 -1.2260907 -1.9530864 -0.050576102 5.0440145 -0.88926476 4.7743535 2.4508212 3.755361 2.7504144 -5.382395 0.7112762 2.3603857 3.7154443 0.48514172 0.97663265 0.4523997 -0.5910131 -5.627962 -4.051714 -3.2486737 -3.4638677 -5.531306 3.414103 -2.3097591 -4.7511873 -2.4803367 -0.07704587 -2.7803261 0.24386333 -5.2527122 3.8021603 0.66168684 -6.0955653 4.6361356 -2.6610055 0.25864983 -6.2953796 0.24841073 4.0817823 -1.2599767 -5.0069175 -1.1206936 -0.44568002 3.50721 4.7600584 -0.16080372 4.957016 -0.9863271 -5.3171425 1.8094339 2.3908787 -2.9962893 -4.043501 -3.5797389 -5.044901 -3.6993186 2.4299455 0.30831265 1.8719591 -2.2577872 -4.0247345 1.8531132 1.7410389 3.7082334 -2.9329295 0.92100644 0.6299746 -2.6843922 1.8319191 -1.3126798 1.4176893 -0.59523237 -1.5776094 7.041685 -2.1988432 -0.8641662 0.6577478 2.7737327
the 7.4102945 -1.2992967 4.641551 0.14276597 0.6632039 -5.896365 3.3112803 -2.09628 -4.441834 0.86031544 0.25465095 -2.6195612 -1.2012726 4.5169587 -10.064058 0.25573117 1.73439 4.2817416 4.851128 2.4021072 -3.479387 1.1249648 -0.2207448 1.7169088 0.020437509 -0.53785414 -0.22817034 -3.2870543 -1.5250933 -1.5547024 -0.5313223 3.6263237 -3.338316 -2.163012 -4.083412 -1.167867 1.8224746 2.4973865 0.0789265 5.879013 3.204228 5.2179275 -0.20137149 5.8735957 -5.50223 2.1650226 0.8677368 -1.9477533 2.5134735 4.376184 2.5531392 3.854995 -2.2973924 -0.7540667 4.427546 -7.3020134 -0.15695322 2.3510923 4.557783 1.801804 -5.775302 -2.2846043 3.6849275 1.6681739 1.1836088 -0.20312612 -5.1063695 -2.3025582 0.25936607 -1.4193397 4.4075413 -3.2830105 0.14359088 0.6781314 2.0622034 1.2995595 1.7933879 -1.188793 0.13644552 0.65261644 -3.6971865 0.061133232 5.4979086 1.9581126 -0.6409953 -3.7978249 1.2307079 -2.2610035 1.2520094 1.6212212 0.7474241 2.4681504 1.1596364 -0.0031290073 0.83158416 -2.5196614 1.0849961 -1.0420569 -1.9819636 -5.1132584
， -5.396804 3.628071 -1.3722471 5.0880384 1.4693878 2.4368238 -5.7648416 0.86848444 5.2567806 -5.4841204 -2.964277 3.1737888 4.820266 -2.5149474 9.54895 4.769136 -6.573798 -2.7180414 0.704372 -2.5372882 1.8109758 -1.6358441 -0.304978 -0.92763853 0.12575528 0.90132636 -1.9790624 7.5461287 4.7143307 4.1078215 0.09358213 -4.638984 1.607787 1.9823626 4.7717385 0.5519342 1.3565252 -0.35701433 -0.8477023 -6.070866 -4.5184255 -2.2305493 -2.8956618 -6.5314145 3.7322352 -1.2648305 -4.128891 -4.467807 -0.4277658 -2.4102395 -1.4717015 -4.56446 4.694174 0.28465357 -5.5186224 3.2251284 -3.7504203 -0.26221707 -7.0918674 -1.1815516 5.807763 2.050273 -6.3385396 -0.30018288 2.2338445 0.8205132 4.6932507 -2.5010357 3.8282073 -2.7568626 -3.4097385 3.3907943 1.7882057 0.35088482 -2.0028186 -3.898351 -4.997895 -1.9710089 1.1606425 0.79245687 4.3574557 -4.361354 -4.360913 -0.8641142 1.2011408 3.3660946 -1.8399508 0.4430203 -0.10786942 -1.7890418 0.9199637 -2.1786745 -0.8850333 2.6545596 -2.1354406 6.319925 -2.377551 -3.1685135 0.3557957 2.4205353
。 -5.6626525 4.625151 -0.49061492 4.8553944 1.9803113 1.4915421 -4.887177 1.0657767 5.1855474 -4.309451 -1.3224711 1.1123827 4.8025293 -3.1608505 9.188486 3.130989 -5.53894 -5.04793 1.510017 -5.4230566 2.3843558 2.4008062 -1.5185139 -1.159878 0.9323972 3.2198896 -2.2211583 5.1480527 3.549766 2.4105523 1.5912453 -4.845748 -0.26246202 2.0601182 3.8566923 1.8286555 0.03868833 0.9901373 -0.21034645 -3.1235561 -4.3961563 -2.2490976 -4.2950473 -4.4562144 3.837497 -1.4964645 -6.673905 -4.788106 2.3508387 -4.6954494 -0.6546714 -6.3608065 6.031077 0.4470882 -7.0397453 2.6854696 -3.9820063 -0.65619296 -6.9370246 -0.19738118 3.5078924 0.77940553 -4.676936 -1.5909946 0.96218574 -0.1571733 4.131541 -3.1099386 4.1306167 -0.85264397 -3.7386022 2.714228 1.8553423 -2.7407742 -3.6496003 -3.915955 -5.845437 -3.3187358 0.3347201 1.4690496 3.9198909 -3.8884547 -4.6879992 0.6630595 2.571145 3.7016566 -2.02103 0.20963031 1.082934 -1.5831 0.8952316 -2.6413472 -0.91845495 0.642027 -1.5114177 6.066287 -2.034058 0.17192648 -0.92947125 1.8754443
of 7.3664293 0.009939969 1.9782361 -3.2627003 1.670303 -2.3069866 3.6607146 -1.8681476 -5.1672277 5.176914 1.3818792 -3.5843554 -1.1855485 -0.8279372 -6.9002495 0.4271353 4.3517647 1.328784 2.0315282 0.25721842 -3.155723 -1.6431265 4.6252027 -2.9646378 -3.2344756 1.0165485 2.0542846 -2.1405315 -1.5393919 -3.9790583 -1.1539863 3.3383968 -1.6278725 -3.8251193 -3.80339 -1.5586252 -4.52047 6.085964 -1.3455385 6.014078 0.562875 1.3064066 -0.99196583 2.9219136 -3.6863139 0.20269172 -0.28268042 1.1967783 2.6446266 1.1379484 -3.1213772 4.418617 3.2181296 -3.3899438 3.5820127 -3.4772375 3.9229777 0.19442627 3.8272073 -0.00035884845 -3.484299 -0.71233726 7.6976304 -0.38825345 -1.9977486 -0.53962696 -5.008732 2.7809155 -0.19358845 1.0020741 4.805917 -3.5621107 1.1097262 0.819383 3.584174 -1.30961 2.706999 1.1496152 -2.3191817 -3.2894957 -0.92435884 -2.9745495 5.2501707 1.6535535 -0.419662 -3.2780824 1.6566641 -1.453034 3.8223195 0.34957397 -1.6166424 3.468485 0.32827377 -2.4552402 1.8985801 -5.1308284 3.0458794 -0.6034133 -4.906459 0.24752118
and 9.696199 -1.2443314 0.86752504 -3.7499352 -1.232638 -1.9970554 3.378788 -1.7565567 -2.9129226 3.6916742 0.25048408 -1.7490501 -3.048005 2.378858 -5.915159 0.26060933 3.3152966 3.341553 0.605708 0.38087285 -2.8225238 0.28896537 -0.15700088 -1.6343088 -0.41441774 -1.237116 1.33818 -0.8761849 -3.552322 0.64020044 -1.9757756 4.5501914 -4.545082 -1.6581064 -2.7860367 -1.4027722 -3.8244836 4.336648 -0.89863026 5.3419933 -0.59884167 1.8612554 -0.79148567 4.092338 -0.708865 -2.147095 1.8856871 -1.8314192 2.3534112 3.8775308 2.0115726 5.934681 -2.9457538 -2.401369 2.8355157 -2.9399195 0.63837385 1.2395684 6.869299 1.2858334 -6.481739 -0.65864843 7.1152673 -1.2886531 -0.782418 -0.13662457 -3.6928833 -1.0135779 -2.046615 -2.701861 4.896592 -1.215105 0.698909 2.4441361 1.789388 5.015858 2.0653849 -1.3436959 -2.3319604 2.3719058 -2.5281572 -1.0599968 4.1151752 -0.51716095 -1.1882819 -4.280091 1.8045244 -1.1251035 4.3986964 -1.3777229 1.3608885 3.0572495 1.9056015 -3.3446298 0.29465964 -4.6282682 2.484629 1.757181 0.532185 -2.385337
to 7.7563415 -1.9767448 1.1819441 2.6902947 -0.8271386 -0.081236824 2.189404 -0.26473656 0.7114069 0.6637024 0.68178636 0.08312764 -0.44992658 3.968808 -4.0531034 -5.100375 5.1192136 3.0339305 1.6156464 -0.03958919 -4.2574177 0.8152199 2.1354067 -3.5966384 1.1819054 -4.245072 1.8625698 -6.013646 1.237456 -7.2294636 3.1988409 3.7625759 -4.3113613 -1.7684655 -3.607626 -5.0195856 2.8786883 1.1470627 0.12914039 4.7355638 -1.2165834 2.8263488 -0.87437576 2.763539 -0.570406 -3.2612033 -2.6514626 3.8066053 3.3391075 2.5782955 3.0083995 2.3310652 -1.3268294 -4.017656 8.314386 -5.336519 3.6126351 -0.27988765 7.2741823 1.6974605 -5.3640985 -0.8200236 6.11695 1.4530023 -1.8230647 -5.4270134 -2.287664 5.5080495 -1.9802066 0.20999967 9.773553 -1.8581532 -1.7235554 1.8527431 0.6039918 7.2618513 2.826111 -3.1187088 -1.6348314 2.7995982 -0.84993535 -1.5120449 12.045973 -3.3536355 -3.2116108 -1.041 5.7608953 1.9690933 3.084108 1.9443399 -0.5201409 4.1613536 -0.4247441 -2.1993518 0.9602593 -6.01825 -1.2192245 8.241871 3.1222966 -4.2908916
a 7.0248065 0.7845671 2.7852576 -3.070358 6.293454 -3.4961824 4.264162 -4.70501 -2.8249695 -1.2295161 0.24046545 3.044724 1.3842249 5.186652 -2.6396255 -2.8592913 3.0471926 1.9539071 4.695317 7.5803323 -3.0910468 1.3347371 -0.9776988 2.3048797 -1.0563946 -2.2474852 -1.6714586 -3.9913523 1.0789565 -1.7935343 3.6740332 3.8583777 -5.02599 -1.3470668 -3.784905 -2.679967 1.0643926 0.48295692 1.2628798 5.572196 -1.2228862 1.2231988 0.16441889 10.985807 -7.695069 -0.580149 4.1771374 -3.0081694 4.0058465 2.3091805 2.93707 -0.17498802 0.09713099 -4.1413655 4.4358807 -2.1227877 2.2023976 4.89888 6.6002884 0.90069276 -5.140152 -1.7175641 2.357323 -3.1868744 -0.6675508 -1.470247 -1.3417596 -3.5589561 -3.5733929 3.3085113 1.0241446 -0.16335404 -4.214691 -3.8303874 -0.012529829 1.2269516 1.9300642 1.1210843 3.6884055 -2.485044 -4.444073 3.1541727 4.112961 2.6018884 1.9892868 -0.34405988 1.9582347 -0.22523654 0.952331 4.905307 2.062649 1.680509 -0.6413505 1.6318421 5.448566 -7.1501594 0.30854866 -1.4846067 -3.383836 -3.0029783
in 3.564768 -1.0499121 4.010476 -1.4382035 -0.4442913 -0.26608002 5.6891546 2.9369404 1.1427759 5.5728827 1.4927214 -3.4779706 0.5155334 2.2520473 -3.459866 -2.4243824 4.320289 0.68838865 3.4328463 3.5170772 -4.5411487 4.7903314 5.3443317 -1.0263321 -1.9893881 0.1640665 3.4407063 -2.3718495 -6.0743666 0.711332 0.7196928 4.2228055 -5.173182 -3.008734 -6.349167 -1.8094305 -0.042334467 5.277419 -0.009199905 5.674729 0.03757277 4.8183603 1.8513814 2.2447827 0.13691041 1.6393439 -0.65035594 0.8965191 -0.86430234 8.520071 0.69217056 5.4888096 0.10287672 -1.8029082 4.1094136 -4.2962203 1.5427437 1.1347454 3.5936549 -0.26173627 -6.496476 3.431769 1.6616033 -0.75556123 -0.8203445 -1.0426915 -2.5235002 4.071388 -1.144195 2.6541493 2.985024 1.0197531 1.3981559 1.7522941 5.9040565 -0.21217124 7.208684 3.2140427 -2.896043 0.12252585 -1.9531944 -4.533181 2.7038474 0.8295152 -1.7810224 -4.8122873 1.6235868 0.078121245 1.549141 0.73227334 -0.88582915 2.0388575 -1.0917957 0.020753667 6.288406 -5.9665923 1.7696636 -2.227879 -3.1414964 -2.5446439
一 -2.252323 4.8934503 0.6974377 0.42900905 0.5062791 1.6031926 -5.94419 -1.1375017 1.639434 -4.2978306 -3.0347927 -4.425605 2.5262985 0.83132285 3.71774 1.0895032 -6.539429 -5.699807 -2.727583 -1.8038459 0.78062224 1.6723591 -0.5689556 -6.457191 5.0427556 0.677658 -1.6850935 -2.3250172 0.5653913 -1.4855565 3.5888917 -3.577953 9.6054735 0.54189354 2.1131983 1.9825898 -3.030393 -1.8980924 2.244632 -0.7992045 1.6478379 2.9687629 1.3118001 -3.3516715 1.6126764 0.20036101 -2.409461 -6.229613 -1.0704204 -10.389949 0.20659386 -0.8320787 -0.70209587 3.0919213 3.1607854 0.42764753 2.5536823 2.854522 -7.102625 1.925679 4.661063 -0.087465234 -3.4613707 -2.5707355 -0.5375662 2.2360406 4.0349836 -2.7641807 -0.27687448 -3.305634 -2.7187731 -0.21659523 -0.2883428 1.0396312 -4.028863 -1.4064658 2.5865521 2.5758815 3.4653835 -0.49210867 5.3361506 -4.668025 -3.1890352 -0.85867345 -5.115562 5.952467 -1.1021698 -4.9938645 -4.940587 -2.8458984 5.35612 -1.6194109 4.201218 -0.44466534 5.390204 6.004377 -3.7541378 -3.8351822 -4.388941 -1.631427
在 -4.202712 -1.5555325 -0.9599602 0.36265072 2.8747566 -0.74982446 -2.5216343 -0.73726845 1.5856285 -1.8755245 -0.9641459 -0.37162542 -1.20405 -2.3927884 2.7622035 1.8336523 -2.6364598 0.794446 0.13355829 0.34562173 0.3865759 -2.1060371 0.13730572 -3.3476562 -1.9888896 3.0169122 0.92070997 0.5433843 4.440302 3.030515 0.12645216 0.1582222 5.097732 2.6614742 -1.5915992 1.9325157 2.5118053 0.087831646 -0.57173103 -5.2106075 -2.169082 -0.38193902 -0.8148208 -1.4237332 2.0703897 -1.9606256 -1.5119894 -1.942109 -0.96177953 2.2196631 0.7059157 -0.5061718 2.3635654 -0.7279058 -0.79751426 2.6354585 -0.9711146 0.9810731 -5.3685927 0.2852495 2.7925675 -0.54023874 -4.5106606 0.69312614 -1.0080137 2.4294646 1.6342647 -0.05932445 2.2346165 -1.3895837 -2.171534 1.3434104 1.8578551 -2.3522303 -2.926986 -0.85018986 -2.7986534 -1.6136098 -0.7584424 3.0014963 -0.80340755 0.7580117 2.047865 0.8894953 -1.4630064 -0.19003448 0.19401458 0.33465874 1.4332964 -0.9363249 0.3427278 1.3995454 0.32207578 3.001773 1.8697219 3.223379 -3.2557902 -6.0219316 -3.7200131 2.9297426
是 -5.8603683 0.90910923 -0.29111665 2.7686336 3.028673 1.1095531 -4.007675 0.44273564 0.8259407 -2.2730913 -3.7324524 6.0384316 4.355674 -0.9369446 3.63189 3.9732053 -5.5511045 -0.3179027 -0.7337672 -1.3853009 1.3435727 -2.7742496 0.44344157 -1.6343448 -1.1089467 -0.67842954 2.7142441 3.9647503 3.164317 -1.0968345 -0.33141977 -3.1605196 2.6388497 0.4873014 2.3191998 0.9656726 5.7490373 -1.3682216 0.42217562 -4.9489493 -5.9074025 -2.913271 2.2093325 -2.7674475 1.105742 0.3493515 -1.4636941 1.009307 -3.1995003 -1.4012698 -0.74978226 -0.4355719 1.0612987 -1.4462684 -1.9093785 2.7025561 -1.2398903 -0.49687818 -6.028068 0.51272607 6.1984115 2.587879 -1.4477868 -1.1462555 0.28423798 2.3999748 5.3708878 -5.1594124 2.3190677 0.34319752 -3.0928097 0.5539936 2.8590958 -0.50881267 -0.7871513 -1.7463795 -1.908237 -1.4261212 3.0872128 0.15487139 3.6151164 -1.1862051 -3.3614395 0.85373646 -0.46226978 0.40425074 1.5690688 0.24840535 -1.5618135 -2.8186862 4.2966495 2.1105857 1.5858785 6.134421 0.6686312 2.9949176 -1.6595387 -3.812067 -0.37761825 -0.98342896
了 -5.0728 3.9952343 -3.928167 3.9290705 2.1584215 0.20551622 -3.6639197 1.324839 2.9266706 -3.6207075 -3.3707325 5.322751 3.5635648 -1.051971 6.5064054 7.1601205 -2.6845362 -1.6636657 -0.9863799 -3.07361 3.3462033 -0.14779037 1.4544623 -0.14758383 -1.4518493 3.0439107 0.41536856 2.9173138 0.76295733 1.9405762 1.0455003 -3.9360008 3.1603768 0.68986773 0.87963474 -0.06283042 2.6942873 1.8986143 -0.5227107 -5.716309 -3.0032089 -0.21264791 1.566248 -4.8058987 6.8773527 -2.120114 -2.3796291 -2.1946566 2.1611974 -1.5736464 2.4806569 -1.3882673 0.85643566 0.18144308 -2.8209884 -1.5177594 -0.86416787 0.41941848 -7.1221623 3.393691 3.7293189 0.66996396 -4.377258 -0.414187 2.128133 1.3548516 2.6229002 -2.1918085 3.0258596 0.7716653 -2.8245516 3.0122178 0.7655255 3.9879284 -3.316508 -5.1330214 -5.2613783 -3.5849006 2.0378728 -1.2903447 2.4308918 -0.13842434 -3.8680265 0.914512 0.8827366 3.8802173 -0.77543116 2.258157 0.45638528 -2.6323633 1.2797141 -1.0489527 4.118149 -1.3369799 -3.5628934 2.8869452 -3.820653 -3.2735176 0.04065333 -1.146583
is 0.6490072 -2.3239684 -1.9751874 -1.5147213 -1.0863166 -5.271836 -3.4835987 -0.81781363 -10.161883 3.9783146 0.15254319 -3.1125548 -0.3448372 3.0256054 -6.743224 -1.1317371 10.262452 -1.5247728 -2.1529653 0.88962656 0.2965025 6.6373897 2.8326597 3.3178422 -1.2427446 3.0889761 -0.35023218 -5.9718084 -5.7145834 1.1546478 1.5130568 5.8584237 -1.1067026 2.3499012 -4.594062 -1.3029406 -1.4397628 -3.3663933 1.6257842 4.4090166 1.6719985 1.9468375 2.831033 3.7268918 -2.9945564 -0.8556205 1.439699 6.6219745 -3.0299182 0.27070305 0.50100756 5.61612 -4.427049 -3.110831 -0.5593344 -3.8116553 6.6865606 4.558659 8.298853 -3.7672768 -3.0202785 0.32652313 6.473761 2.1496842 0.22098435 0.15398002 -4.4240174 1.1909449 -5.3306847 7.4361277 1.2077974 -6.563802 -0.8672047 -1.192551 -0.02500126 2.7717798 1.7252318 0.3798354 -3.5700884 1.9452698 -4.6484966 -2.4543335 4.1648436 6.1462708 1.1457173 -2.261967 0.33890706 5.145985 0.23449193 7.94845 2.647622 2.0959694 -1.0508921 -5.1846457 2.551788 -3.1167161 1.1188935 -1.3964087 1.7430024 -0.8575956
有 -11.757975 -0.9059608 0.9522004 4.8620453 -0.50448924 -2.5635521 0.011383255 0.2868137 0.121128894 -5.1155434 3.4852097 1.2145622 0.6909881 -0.503028 5.6034555 -1.8066067 -7.9806547 -0.48760054 -1.6575044 -0.7006108 -0.45312274 1.265112 -2.6517727 -3.3641026 1.8940803 0.084023386 4.2320848 4.333696 4.3076224 -1.5058111 2.0433311 -3.1824422 -0.78884465 -1.4708791 0.32898244 2.797437 -0.8108475 1.401249 0.345979 -3.0010097 -8.3338585 -3.242453 -1.8657272 -2.755673 4.693616 1.7918732 0.6502493 0.75708413 -3.8718803 -1.1865883 2.697975 0.47190058 6.42132 -0.42973006 -0.24357074 5.186643 -2.8084862 -1.6778888 -5.4259114 0.45279458 3.7348382 0.8763484 0.032935012 2.0105495 -0.20779136 9.038877 4.10293 -3.779447 2.6999402 -1.0793343 -5.3746576 -2.742373 3.6373386 0.07496977 -5.728178 2.9623632 1.6446311 -6.4943113 0.8512643 -2.292257 3.5321546 -0.74930865 -1.1234957 -2.0933735 -3.9928784 7.5139527 3.7871084 4.538297 -1.1232303 -2.0137048 -1.9964687 2.8953195 -1.9049183 6.39996 0.54802936 6.067672 0.9063894 -3.5905511 -1.388425 -4.712826
和 -7.70441 3.0135112 0.78668445 6.9369187 3.3143034 1.3965281 -3.2595289 0.42031866 5.631173 -0.073364414 -0.5705687 0.66053563 5.123706 -2.0613093 7.1401606 2.378631 -1.3794912 -2.1551745 0.647133 -7.616403 2.339444 1.8439273 -3.2249682 -2.8790197 -0.8262135 5.8743014 -1.6892697 5.544532 2.6945205 4.545049 0.5963322 -4.242846 -1.906561 2.1257446 3.8435225 1.6101371 2.5350754 0.9923476 -0.19154082 -3.4197502 -3.3254898 -2.345892 -4.45967 -4.260236 2.8787315 -2.6034827 -6.568676 -1.5610801 0.80557996 -2.8277714 0.44152647 -5.1628566 3.726421 -0.06556942 -5.1134844 4.6037016 -4.3357882 -0.6593132 -6.135738 0.28875312 1.3686262 -1.9626107 -4.46895 -3.1651118 -1.4533851 2.8525429 2.7252738 -0.90362287 5.053901 -0.39262724 -5.0019236 2.5143 2.6410518 -4.2690716 -2.7826416 -2.614846 -6.2035246 -3.8919246 2.4727626 0.8967753 -0.6767259 -1.2123091 -4.3833456 1.5988452 3.5952756 2.8551342 -0.2501368 -1.1928737 1.2155128 -3.0449517 2.8134184 -2.4549468 1.6316348 -2.216359 -2.5183935 5.461702 -1.2455546 0.34392074 -1.5590847 2.2510388
我 1.4254491 -0.71233636 -1.2709537 -2.7759264 1.4830767 -4.1050973 0.45567766 2.0453708 -0.84467256 -1.7013456 -1.7600546 -0.84853524 -2.7297764 4.591425 0.32628423 1.0362136 -4.2341933 -2.487131 -4.1118283 2.315185 -0.23585767 -2.312473 2.7828138 1.6978263 -1.873006 -9.352043 -0.052249912 -0.62225646 4.604788 -5.274746 -1.5578852 0.980597 10.2039 -0.59420574 5.280239 0.032716934 -1.6685983 -2.2823348 4.42989 0.40037057 1.1590182 3.33161 4.1698995 4.0201597 4.397354 -1.988805 0.20921765 0.97139806 -9.673288 0.5783274 0.2037402 3.0083935 8.022884 0.25979847 1.1671524 -2.5567195 4.2154236 -0.36453962 1.8110117 -4.0227857 2.2490318 3.306284 -4.784602 1.0629311 0.8098508 -6.957317 -0.49754927 -2.7143836 -3.3391526 -2.9408445 -2.371836 0.68933356 -3.0920846 2.3559406 3.1524632 -0.78060675 -0.893081 6.1757474 -3.309499 -5.0681024 5.4985013 0.5671422 -5.026966 -1.9309398 -2.57559 3.5350058 -1.0318502 1.9273272 1.4704444 1.2614658 -2.7821739 3.5245376 -4.5706406 3.6170866 -3.242672 0.29180285 -5.3751965 1.0838596 2.1607049 0.1658592
中 -1.1898377 3.840409 -3.1668713 0.6317034 0.6820008 -2.1150463 -2.5745463 0.56982875 4.461676 2.1075087 -1.1545755 0.9548298 2.7583249 -4.1353493 4.80879 2.2030864 0.0937104 -2.5375655 -6.9697533 -1.9056385 -1.8439531 2.1551104 2.261853 -2.564606 -3.3880105 -0.6985396 1.7165058 4.044894 2.73327 -1.0464435 -0.07279597 -8.801506 1.1704855 -0.60614455 6.03835 3.3548589 3.5770257 -0.78599775 1.087793 -5.5371776 1.7515696 1.523917 -3.646385 -2.401387 1.8534198 -1.50091 -5.9378257 -1.5946397 -1.7265487 -1.770957 0.99482477 -3.3253438 8.762193 2.8216975 -2.2868204 6.0633254 -0.7034256 1.2195836 -2.5914342 0.56995493 0.24586955 1.2662232 -7.597722 -2.9982948 -2.029201 4.6979923 4.468179 -0.6431757 5.6867146 -0.50093657 -4.8015585 -0.6396316 1.7737417 1.0637276 1.9233122 -1.541139 -5.491008 4.5014377 2.886275 -2.4656863 1.9009246 -0.93728733 -4.804136 4.0425673 -0.41100454 3.5639322 -0.7631548 -0.14700662 -1.9778153 -2.9163725 1.5041068 0.118459605 1.43017 -2.7361226 -5.0895185 -0.7263657 -2.3342183 1.8758391 -1.9530675 -4.1643295
个 -4.613161 2.7628732 -2.2235231 -0.18569535 -4.608378 2.052067 -0.39779952 1.7900494 2.0186722 -5.8991394 -2.3832948 5.8862348 1.2033814 -4.9700284 -0.59751135 3.0631483 2.8463566 -6.352274 -2.7777987 2.7562437 -3.7198155 -1.5806981 2.4398713 3.987472 -5.6324997 -2.2896764 4.6078224 6.316412 2.9054828 4.1150217 3.2620273 -5.4923735 5.2098813 1.233406 2.0224538 -2.9172256 1.5255953 5.729655 -2.277905 -9.154641 -3.5110607 -6.1625776 0.2749037 -1.448694 0.22459546 0.2428059 6.9749107 2.70045 0.65276206 4.4787116 -4.889688 -7.823191 4.4907804 0.0026587888 -7.713031 2.333376 -5.268171 -2.612815 -1.1236637 -1.3463966 3.2431686 3.4913611 -8.724169 2.639162 1.8295131 0.5423564 6.3180017 0.002598903 1.6933727 2.5225954 2.0762308 -0.09168666 -3.5417244 -0.6441296 0.7826641 -3.1633053 -6.9602017 0.27577153 -6.4690437 1.1496968 3.8123305 -2.3746643 2.0490417 1.4954891 4.026123 -2.1284919 -4.9779024 1.6217211 3.9924178 0.5716818 -2.6725864 -2.0488145 3.3221185 5.492136 -1.207436 -1.1675254 0.035101328 0.7683591 5.979026 2.4600518
人 -3.7380662 -0.23139028 -2.4908767 -0.9077868 0.48622662 -1.7685032 -5.4785457 3.915371 -0.9146616 -5.292863 -1.8733783 1.5316792 -1.037604 1.1457535 3.8172703 3.377867 -2.1676643 -3.7727876 -2.9726384 -1.3222332 -1.0258077 -5.610366 -1.3059645 -6.1599364 1.777804 -0.9718582 -1.2843182 5.372483 4.8347697 0.20324385 0.52757275 -4.217404 3.3651452 0.13377202 7.53432 2.6951659 -0.2377928 1.7560474 3.09755 -3.82101 4.6982255 -5.231345 2.5637589 -2.1054711 0.56233144 0.5261069 -0.49688646 -0.3843806 -5.409516 -3.8720276 -0.5382269 -0.79991895 6.470258 1.6715204 -2.5090425 -1.9526829 -3.516069 0.986741 -1.2345154 -4.377437 5.070545 0.8594599 -1.8664318 -4.070854 1.601352 -1.6823082 -0.21700375 -2.653086 -0.5900302 -4.2490535 -1.1090654 -0.027449442 1.1664912 0.112085976 -0.95150626 -3.8444324 -2.8960092 -1.1969497 3.7458317 -1.1253997 10.164641 0.18381691 -6.072958 -0.43977666 -0.71196496 4.5020185 -1.6540464 -2.20701 1.9314418 -7.7605944 -0.9497871 -0.3480833 -2.8988132 2.6599739 -5.1835046 4.8164215 -6.9910474 0.41890344 1.7966998 1.7870976
这 0.48676172 1.1175793 -5.8796043 -1.3238122 0.93427545 -2.297483 -0.03718977 0.9032817 -2.7354286 -2.8366947 1.1875381 -7.3327384 -0.008477208 7.02582 4.19522 1.9899222 -8.242058 -1.5996513 -2.5536933 0.24388348 -0.39123365 -2.2785656 -2.0431743 -2.8828316 7.4707994 0.47120148 2.6019082 -1.7805097 -1.324227 -5.633964 3.025974 2.4936059 3.009021 -2.9558976 -3.635042 0.4930397 -1.9264283 -0.9200081 4.0891175 1.420641 -1.3315017 4.627174 3.5186613 1.0969759 2.9826856 2.440383 -1.5498558 -4.672843 -1.3691628 -10.756545 0.48051187 2.5335221 -2.6436546 1.6617625 4.3726735 -0.08063471 7.1059036 4.0925245 -2.5530953 -0.8275961 -0.8872563 -1.4774922 0.7824901 -1.0592003 -0.2359633 0.47713313 1.456985 -1.2265531 -4.7984643 -1.2720064 -2.8164008 -2.4179876 5.215627 4.049596 -4.531907 4.4346957 5.5424833 4.623512 8.756928 -6.0937457 4.606669 -5.801611 -2.6758673 -1.8934456 -6.862617 7.082633 -0.9488956 -1.313425 -3.516878 -4.8027854 4.1043496 1.6698089 1.443015 0.21633044 5.167995 6.467191 -4.5477204 -2.3712234 -2.0895395 0.9018878
不 -5.914606 -3.8962877 -0.27007684 2.2466397 -1.8631916 3.222074 -5.49376 -0.48579067 3.5683258 -1.6951442 -0.49059942 3.9006367 3.0801082 4.566468 5.5725513 1.8961053 -3.377607 -3.6787653 6.8279576 -2.0410607 -1.0888425 -1.1102872 4.5526547 4.326043 -3.0857496 -0.81716216 -2.2025406 1.0330594 3.4766288 -0.97666603 -1.6228136 -3.610236 3.1307566 4.489422 5.3967676 -1.8867601 -4.375323 -1.8452735 -1.1578501 -1.9599757 -0.8279068 -7.262285 -1.0568198 -4.1300335 4.6338935 2.4151852 3.457608 -1.2989147 0.0684077 -4.0999064 -0.9328562 1.2585582 2.3076763 2.511336 -0.7788161 -1.3645418 0.4216174 2.016868 -2.016651 4.9360404 6.9301257 1.7765273 -2.9922884 2.4204936 -0.18210255 0.34467062 1.6088191 -4.0486093 4.298127 -3.3796887 -3.8324382 5.3705344 0.9130606 0.99775547 -0.9539215 2.451661 -3.7673755 -0.6183747 2.3924634 0.7477385 5.3646355 0.17424044 -10.233282 -0.10632393 -5.124249 -1.7672333 0.9054908 0.5143515 -3.138231 3.3385432 -1.5984776 3.5153797 -4.151444 4.943124 -3.1292994 4.6005154 -1.7248173 -3.5297074 0.7392664 -0.13831562
为 -2.158832 -2.713474 2.7153366 1.234256 -1.3315241 5.4825654 -5.6038265 1.1618507 4.326575 -2.007125 -0.7161363 6.1645947 3.887996 -2.0316052 -1.512078 3.4287124 -4.963448 -2.632927 3.0917494 0.05835303 -1.7265838 -3.6224802 -3.8608541 0.25641167 -1.0963024 3.3866584 -0.1620276 3.502253 0.057705935 -1.9942892 1.0716448 -0.55498904 -0.8526048 -1.6317447 0.27072972 0.054514326 1.4847577 -1.8103931 7.16621 -1.8109678 -7.6786885 0.24665152 -2.8750002 -0.32998917 3.792452 -6.037558 -2.397229 -1.02016 0.26730415 -0.6409721 -3.4707246 -5.9042907 4.139404 -0.11741945 -2.706026 5.396224 -5.03045 -1.4665904 -0.3866405 0.58754253 5.3081613 -3.6478417 -6.1433024 -2.5425832 4.0422993 7.0988307 6.2045174 1.980661 9.066267 -2.1463263 0.06880719 0.58359665 -4.879719 -1.6464343 -0.5976327 -1.182119 3.2644162 1.8394436 5.4182763 1.5667987 0.34101418 -2.7655623 -5.554524 -1.8990903 2.2092228 3.0880525 -4.6638236 -1.3391339 7.926703 -0.3304948 4.45306 4.3317175 -4.2967734 -3.3908596 3.052369 3.4311743 -8.399338 -1.198857 -1.6033905 -2.0777225
们 -4.181177 -2.8751867 -1.4583691 1.0728406 -1.2032466 1.2647358 -1.8239979 -2.645388 -1.0423356 -5.6078706 -0.1855335 -0.14847413 -2.1948035 0.014422339 3.4018338 6.2608747 -0.7983871 -5.1754785 7.2155347 1.1831987 0.4937708 -5.7029624 5.4085717 3.5594835 1.5953004 4.325228 0.37664434 5.455225 0.42194825 0.25901964 6.1698174 -1.1640126 2.6242907 -0.07373301 -3.0756903 -3.7831779 0.5032659 0.22534037 -1.8184206 -5.880388 -2.6658683 -2.5987647 2.7984173 -5.752593 1.5284405 -0.37717423 3.8426712 -1.752644 -1.085138 0.14691433 -0.3033959 -0.26249996 -9.270055 -1.5032637 5.8373947 -0.48416477 -0.10609239 -5.01624 -3.8911774 2.4628675 5.2938576 0.50901103 2.1387365 -0.7361389 -0.05850103 0.111218125 3.2828345 -0.4190803 5.518229 -4.157416 0.24268433 7.6923695 1.820799 2.0409756 -3.593578 -2.0205214 0.31890756 -0.7999273 2.8670578 -0.071777314 -2.6519086 -1.1813791 -1.0402111 -0.8968053 0.592855 -0.11843642 -5.1265254 1.6021955 -0.5431423 -1.055359 0.47185606 -2.854537 0.20200463 6.9011083 2.6803865 3.0873675 -1.5042977 -1.1255423 -1.9375334 1.3694193
用 -3.9105105 -1.7702546 -2.11898 5.569394 1.0596725 2.8503346 -3.94022 -3.9278789 4.2427583 2.6627703 0.87638324 -0.6080405 3.4035938 -2.021472 2.407537 6.509357 -1.8559074 -0.9295533 -2.6382444 -9.0262985 2.287404 -5.722438 -4.011233 -0.8130151 -2.7376385 3.0407445 -4.6357784 -3.2360482 -0.46690542 -2.1120913 -6.844944 -0.543448 3.3174565 -7.1662884 1.7531722 5.4314404 -5.282627 -2.9027176 -8.10622 -0.4312935 -8.0796 3.278189 -4.5134234 -3.2856941 -3.6185846 3.8317165 2.1036253 1.0938249 2.2785442 -1.1040161 -2.3566215 -6.809285 -0.787819 2.4967105 -1.407857 9.859356 -6.724565 -3.8951893 0.42062154 4.130404 5.540535 -2.0300515 -9.931788 2.909787 5.9361324 0.15019548 2.3234475 -2.4312649 5.243743 -7.070631 -8.047469 -1.3223089 -0.17995115 3.5511947 -1.5230794 -3.111256 3.9701056 -2.1619048 7.3593326 -3.56647 6.5884914 0.45626456 6.0763354 3.5101488 4.393031 5.0963387 -1.3661948 1.8685751 6.54516 -1.5420035 3.23415 4.4551077 -1.5843667 0.60266685 -3.7148604 6.1111937 5.212171 -3.313951 4.138567 2.7933235
、 -6.44171 3.675688 0.44590986 6.092423 4.5919585 2.9629135 -3.978128 -1.1194077 7.0036464 0.99968547 -0.70485705 0.77910537 5.083942 -1.3790936 6.8626137 -0.045187276 -1.884557 -1.891244 0.16330782 -9.474529 1.8904382 2.5911396 -4.2018056 -3.8105989 0.7444038 5.506553 -2.9575205 4.692957 0.87085736 4.4302907 -1.6170015 -4.381586 -3.9803166 3.6840677 6.3224406 3.4558632 1.2544188 0.40036848 -2.0265627 -2.4760952 -3.057342 -5.571112 -7.111 -2.566237 2.0323613 -1.7954122 -8.072031 -3.44521 4.192204 -3.7039137 0.93131804 -6.5875278 4.0901904 1.0555353 -7.4036455 3.443731 -5.8441634 -1.5838875 -4.9490867 0.04812321 -0.28617716 -2.9213648 -3.9234192 -3.687475 -0.6835357 2.315774 0.39723626 -0.9363988 6.7430463 0.49994296 -3.9911528 1.0721354 2.6451602 -7.614784 -1.8286254 -2.8491776 -7.5027504 -5.174556 1.8978281 -0.43067402 -0.21755011 -0.6087993 -6.365074 1.5936973 5.3183184 4.7853947 0.34482285 -2.2315073 -0.2406996 -3.7270155 1.0524117 -5.306176 -1.5971513 -4.650673 -4.888575 5.8820868 3.5469573 3.3453245 0.96797687 4.558909
for 7.995987 -3.0277944 3.583774 -2.2152956 1.9794723 -2.2065096 2.1157458 -4.861127 -3.5822833 6.9759626 -0.2805375 -2.4071565 -0.3797673 1.9101139 -5.6728373 -4.0809507 8.171042 3.017789 1.8516387 4.0706267 -2.962147 -0.22094253 -1.2154104 -0.47822827 -0.098983 4.089151 4.147869 -6.485188 -4.2128944 3.1677272 -0.2305774 5.667 -0.5916861 -5.412079 -5.2942543 -6.0659633 -6.357898 5.767365 -2.8296335 2.6348367 1.1309439 1.1270068 0.23788041 2.0790098 -3.1993618 0.47687706 -0.50304407 1.7652602 -1.13104 -0.31323296 1.560557 2.9661264 2.656837 -3.0534518 4.852736 -6.9988565 1.7243378 -0.19948898 2.7581785 1.3590177 -4.4636397 2.8185146 6.3503404 5.568728 -1.9986933 -2.325674 -2.5551724 4.362763 -2.1496518 4.2509747 1.6285229 -0.21554345 0.5354382 -0.86972123 -0.54489374 3.1937675 0.9754362 0.51437217 1.9298713 2.992796 1.1841676 1.4912353 2.9104927 -6.4871407 -0.81542754 -3.8652022 -0.41595 2.049294 4.435263 -1.8354093 -0.9080859 5.1462574 -4.567946 1.837666 3.1042058 -4.5764112 -0.85516506 0.9926675 0.69299585 -3.060676
他 0.16071469 0.41701788 0.19168973 -2.1913183 2.2159631 -2.3087401 1.6739172 3.1991158 -0.59398633 -2.9896348 -1.2963128 1.0630077 -1.608768 5.7168493 3.218715 -0.6413218 -3.8732212 -0.2621991 -4.7416134 1.1895947 -0.17878127 -1.9445237 3.4854238 -0.18747811 -2.7403877 -8.72308 -0.8166928 2.3851254 3.895684 -3.6026864 -3.955009 0.3027722 7.1388493 -0.9305794 6.9396396 0.75075525 -2.4894109 -3.1360178 3.9965892 1.3071129 3.5492342 2.393727 4.334343 4.5198903 4.8900857 -1.3548357 -0.5184757 0.8978878 -8.777742 0.1633737 -2.2465246 3.235191 8.720534 1.7541759 -1.612004 -2.047563 0.059270434 3.2352972 0.32679656 -3.5856392 1.1864225 1.6717371 -4.012134 -0.19072491 2.1441088 -5.252695 1.3737782 -2.4330342 -3.1125083 -2.9753432 -3.2974944 0.43938786 -3.5290425 2.8513317 1.0267329 -1.2522242 -0.9297167 5.1353984 -3.3416224 -2.685808 6.9747148 -2.2152221 -4.214689 -4.3087397 -0.9960593 3.9163375 -1.7630184 0.38468167 1.9108143 -0.9131112 -3.106011 2.6265547 -5.1594605 3.046144 -6.0970182 1.7355025 -5.571768 1.6283408 -0.48988277 -0.4230614
that 5.50245 -1.0309764 1.8249956 -1.5039259 -0.5672538 -4.275206 6.52267 0.45269993 -1.1516536 1.4236867 2.877162 -3.6993048 -4.544474 0.9917747 -7.718136 -3.9247587 2.684106 8.339639 2.4359505 5.493781 1.9462312 2.5115674 -1.4536337 -0.26375487 -3.2178864 -3.9332356 0.8555594 -6.443998 -0.21415076 -2.9314132 0.03529985 0.72891265 -3.3196807 -0.19658598 0.91976297 0.52611756 1.3543144 4.69273 -4.742414 6.712971 -3.1115005 2.8039744 1.321481 3.3926308 -1.4605365 4.175927 -2.6674254 -3.1421976 3.8455026 1.9705876 2.794124 3.998416 2.1001225 -1.9220405 5.0857043 -3.4286418 2.432668 -0.25416616 1.6461622 -1.4772062 -7.1633167 1.7521358 11.019798 0.9309072 0.116655126 -2.1441145 -1.0232568 -3.9752514 -1.1394252 -1.0820849 7.7324233 4.297692 1.6139882 -1.532902 1.2812678 5.1720843 5.177849 -3.1232862 -1.7187084 0.49986923 -5.8849936 2.0283 5.509085 -2.9796085 1.3025683 -1.4761002 6.2432833 1.238973 4.1430683 4.96787 -0.82841164 6.7025075 2.5739279 2.6476002 -0.27052757 -5.674789 4.342236 -2.4217684 -0.92376345 -2.9078825
以 -4.093408 -0.7353868 -1.746088 2.7488768 7.557533 4.953622 -1.564352 -7.0971437 0.7787976 -6.1811104 -7.3125763 0.16451211 3.8993738 -1.5699161 5.0411158 2.4339473 -6.404263 -1.8929219 -0.6596387 -1.2348297 2.9809306 -2.5834367 2.118009 -2.7987993 -0.1059373 4.2374725 -0.0130794095 -2.4175658 7.4319577 -2.147467 -0.40817145 -3.8273444 -0.2558161 -0.38086793 2.565394 -4.3198805 -4.3067784 0.8529773 -5.539476 -7.1962385 -0.39084834 -3.2873032 -5.1207223 -3.9219563 3.8543744 -1.8429173 3.9618857 0.5492118 -4.752488 -1.3722264 7.655583 0.8634221 0.7745837 5.0091963 -4.759135 1.9946072 -1.4847002 0.4581435 -10.341516 7.4390507 2.8976426 -0.9019088 1.9449785 1.6164502 1.8298502 6.7844076 2.3556125 0.20756246 0.51051295 1.7425876 -4.0642514 -0.4372881 6.063331 2.9597135 -3.6223953 -3.180597 -0.80504817 1.5757947 2.3779578 -1.6113869 5.2040696 2.627363 -0.7446359 3.984462 0.9407442 0.2937862 2.531622 9.579659 1.706792 -4.372017 -3.3849754 3.9957325 1.0803841 0.45469838 1.6353954 -1.79942 2.4730916 1.5010207 3.8854444 3.1946504
对 -1.7480485 1.3110836 1.5212766 0.62635994 1.3455093 1.5584611 -1.8485291 0.5832033 0.2073848 0.37826285 -0.13563243 -2.3063958 5.239141 -7.74648 1.2511979 1.4530823 -1.3818971 3.1780405 0.9868534 -4.98558 1.8489598 -0.5639558 1.0157661 -3.928658 -2.7031133 1.951207 -0.94951963 3.0737185 4.4799566 4.2916565 1.1215467 -1.1522639 2.3885794 -1.44513 0.7417411 0.2065706 1.6662736 -5.9080863 0.27812943 -3.244902 -2.799007 -0.038141247 -1.7910782 -4.842683 0.58694524 -1.0599003 0.29331332 -0.30121866 -3.0344794 -0.2901994 -3.9547606 -3.377725 2.1540596 -2.8143485 -4.854231 6.4405136 -3.7582252 -1.1529299 -0.8532188 3.8251383 0.81089455 1.648982 -3.8351662 3.0483897 2.911847 -0.73867387 3.1479034 1.7470083 3.8408349 -2.534271 -5.0541673 1.7040826 4.280513 -0.68669647 -4.866685 1.6314126 -2.59824 -0.6244752 -0.14008223 4.3839207 1.0204624 2.4297876 0.7493369 2.380582 -0.09064971 -0.26398736 -2.8963382 -0.6062825 -0.586808 -3.6520617 4.412065 3.5493262 1.7511969 -2.2615812 -4.9192004 4.009251 0.7999073 -2.5730538 -3.5361693 2.6962461
with 2.9442406 -1.6386173 0.47008455 -0.43873212 -3.8671842 -2.2851174 6.2514977 -1.4032274 -1.3384726 6.647672 0.9995623 -1.0551101 -1.7361165 1.9824197 -6.033235 -0.7008464 5.9788632 -2.8073132 4.503027 5.24279 -3.2698157 3.788456 -1.1449674 -3.172381 1.1073995 -2.208082 -1.119043 1.6793427 -0.4639681 1.6024629 4.0319996 8.560193 1.7800093 -2.9123504 -8.930373 1.9073882 -3.1153274 0.14746305 -1.6470672 6.0216594 2.2316341 -1.1428385 -1.6122063 2.0611198 2.2966237 1.5912249 3.3722854 -1.9601114 3.9500642 2.6381698 1.9380672 8.815339 2.5784616 -7.585208 4.3928127 -7.6331306 4.874346 0.49056098 2.1328702 0.041806646 -4.39991 -1.4837394 7.311661 0.086055286 -4.7983303 0.7204674 -1.3251702 -1.3178892 -4.860059 -2.8672118 5.286642 -2.2514198 4.9082046 -0.77748704 0.81961757 -2.524472 -0.17275903 -1.5654339 -2.0500507 0.7326769 -0.98159814 -0.6547463 4.180371 -1.8401995 -2.9978268 -4.544354 -0.5981843 -0.06905678 3.2816885 0.35177484 0.79377866 0.7900372 -0.21088952 -3.885915 2.2071211 -10.87458 2.1055934 2.9050457 2.8376665 0.38852018
i 4.741635 -0.14480647 4.655458 -2.3366847 0.95879614 -2.6960213 4.493939 -3.3790696 3.5600054 -0.4976698 -0.15596838 -1.7327728 -5.278751 -0.05828318 4.009805 -3.4865234 -3.1681452 -1.2231897 0.2267713 -4.0457096 0.7277246 0.5588611 0.059480596 5.412048 3.1790686 0.8177368 0.30434063 -3.3170447 -1.8589448 -3.599572 7.7749324 3.8688586 1.6640586 0.10159763 4.187251 -1.566545 -1.4783754 -1.8026539 -4.111379 8.172495 -1.4650899 3.4770544 2.1931374 5.6635528 -3.4318736 3.2429297 8.409486 4.3621473 2.1736534 1.8751556 2.793581 -4.1395736 0.56918347 -3.629044 6.9984617 -0.010074755 7.152365 0.12848438 1.4042609 -0.5737348 -2.3491938 3.0476587 -0.17873424 -4.076748 -2.2283626 -7.304812 1.3480663 1.0394895 -3.4362164 0.11809715 -0.21245173 -2.801697 -6.5086875 -0.30433136 3.003819 5.542017 6.2644153 -4.4361 4.271405 1.3172324 -11.040574 7.047291 2.7917473 -0.66613436 -0.40064073 -1.1621728 2.181428 2.4388335 -0.6065673 3.0841153 2.2795093 1.7788278 4.4188676 2.08404 -1.8158468 -7.7746906 -1.3730599 -0.035549782 -3.5185769 2.7796006
上 -3.1135545 2.3723578 -6.2696934 3.684109 0.3212343 0.45259857 -3.846204 -2.3055663 3.9986804 -3.8143287 -0.7816884 3.8602502 1.0460637 -4.3412595 2.85964 3.3152378 -2.8700995 1.8819394 0.1589837 -3.406746 -0.06757603 3.624768 2.5800114 1.3435959 4.388689 2.1034973 0.107507125 2.7982986 2.875463 -0.34885323 4.282287 -2.5371246 5.433349 -2.9265032 2.3436925 1.548857 5.325342 0.6950937 1.6384603 -2.2812662 2.3535292 0.7821724 -0.46417618 0.75624275 2.1847067 0.54010683 -3.266051 -0.9896391 -2.1085832 -0.84055513 -2.8139932 -4.8486023 1.7286301 3.0383155 -1.7326344 2.395992 -4.989015 -2.1266494 -6.9193497 -2.986959 2.454816 3.1974106 -5.2204123 -1.1703763 -1.5822103 1.7026601 3.6098378 0.6742922 5.7047048 -6.210248 -4.530293 2.957022 -2.2922337 -1.0808933 -2.5085232 -3.289513 -3.5336308 2.2996395 -3.9777164 -6.415498 0.064265124 -6.2825184 -5.691345 1.5810044 -0.6047099 3.577264 -4.330537 -3.7045069 -2.4025156 -3.1285236 1.096978 -2.5783072 2.8110383 0.36840048 0.90596455 2.3919442 -0.5180739 -0.972572 -0.06905616 -1.0655051
国 -2.8979182 -5.841776 7.5564833 -5.2189636 -4.0011554 4.2608514 0.30783498 -1.890013 -1.4572324 -5.9182596 -0.015276084 5.7028832 -6.763748 4.684699 2.4247139 0.32191685 -1.5411187 -0.92690414 -3.5718656 -6.3695903 -1.3605548 -3.350608 1.2532188 -6.7981257 7.6595645 8.680364 -5.746191 3.9198327 0.39216787 5.101814 -0.45605117 -1.6444544 3.6047013 2.2112558 -0.9512193 3.2034018 1.7101482 6.088657 1.4592077 -8.326159 6.5733433 -3.142524 -1.2718151 -3.9045088 1.2601879 -0.49308512 3.9878752 4.7484465 -2.7191565 -4.184058 -7.381701 1.0479022 -4.2007995 -0.6264654 -0.30924186 4.0337625 -7.321415 1.7916205 -0.22911678 -5.3850603 0.48479614 -2.431885 2.923669 2.991698 6.9878182 2.0318503 -0.23819853 2.5938716 2.7720296 0.95398456 1.7931764 7.330135 3.909353 -2.4063091 -8.651353 -9.245315 2.5931678 -1.6346459 0.69414264 7.026002 -1.7566324 -2.8450465 0.88252527 -2.3263535 2.4668748 3.1 -9.461925 2.0431104 -2.9396987 -5.087376 -1.5800691 -7.2319384 -2.37096 5.419426 2.5195081 5.7536006 1.1358976 -6.370934 0.4079306 7.5519724
大 -2.8074188 -2.1879997 -4.1205926 2.4173837 -2.196286 -1.6323926 0.21272309 -0.39646077 -1.6995757 -1.3641689 0.12685098 5.6305723 3.3536985 -6.55438 7.9650297 2.6926875 -8.643704 -1.3868184 -2.7724931 -2.423602 -0.55383927 1.8705211 2.4126263 -1.0647042 0.61556274 1.4536476 1.8880891 3.735028 2.4823763 -1.4426085 0.5658786 1.1866332 6.52934 2.6047597 8.609634 1.5439342 1.2804413 -1.9022827 -1.3348697 -7.0744047 0.7919881 -7.424115 -5.381809 1.0169426 -1.5485436 -5.0417633 -4.5678644 3.4344866 -1.3149036 -5.3424745 0.07457915 -3.8761082 1.1900213 -1.0832819 -2.6147072 8.197223 -5.476763 1.1869035 0.4298389 -1.9458839 0.33920187 -3.3883326 -3.11593 -3.8803515 2.463796 1.1844517 4.529485 -1.7927134 1.7289021 0.011461082 -1.2378409 4.61379 4.0946174 2.0589454 -0.92039675 -2.6637983 1.2846696 -3.9965398 -1.3255264 -1.579594 -0.11200097 -0.31424144 -0.13185428 3.2833948 0.19159167 3.8706539 -3.209699 -4.955383 0.973901 -1.9404316 -0.03550403 -1.1942053 0.070015185 -2.9689853 0.5115512 3.477844 -1.7272024 -2.2215228 2.2733529 -0.5232747
on 5.347188 -4.9421816 -0.8760736 0.20936011 -1.2122688 -0.90020984 4.4436755 1.266684 0.661714 5.5571465 -2.9370909 -0.1659535 -5.9892163 -0.859939 -6.682278 -7.25748 0.6037473 1.8290646 3.563753 3.239647 -1.5031323 -6.2358923 1.3000475 0.78199214 2.4311945 3.3021314 -1.4211141 -3.11945 -2.702317 0.11394393 1.4324943 2.1307333 -1.2185833 -5.536073 -7.7675943 -2.321398 -2.387844 2.1041625 -1.6895127 9.956506 -1.1136149 0.26824316 -0.6168154 3.3691041 1.1527995 3.3884013 1.4429251 -2.9815564 -1.6668205 4.0485373 4.0370173 2.4644346 -1.3990526 -5.4120946 3.1731322 -4.135963 -2.4069636 7.5292745 2.2011428 -5.676927 -3.8933907 4.869504 5.6090126 4.788431 -3.8046467 -3.446277 -1.3280082 1.0883261 0.812196 2.3786469 2.2845893 0.39679262 0.7244237 3.0494874 4.17381 -0.50244594 -1.6349505 1.3252746 -6.16458 2.5388844 -2.281944 -2.381529 3.3571 3.8448627 -4.003899 1.9439777 3.3193429 -1.9162779 5.502921 1.8591596 -3.3175697 5.1703405 2.042728 -4.486183 5.253374 -4.3102007 -0.4013441 1.9377074 -6.14406 -7.2328176
0 -5.316204 -0.09717047 3.0006614 -5.917875 -4.3437476 -0.7926817 -4.88767 -4.123342 1.5190203 0.3373657 -4.7663894 4.6885705 4.6612244 -1.1161238 6.3593216 -2.8168015 -2.561441 0.81515384 -4.805361 -2.449089 1.4092376 2.001688 0.7070831 0.40270385 3.5885441 1.4470745 1.6275908 2.0036662 4.7133236 -0.95085263 -1.8600879 -3.4943652 0.63179874 -0.52063954 1.104176 -0.4744577 -1.6200284 2.7447999 0.24606508 -7.2136436 2.6163633 1.6108508 -0.068809934 -2.4515085 1.2261531 4.2466593 0.32206622 -1.0014403 0.64795154 -1.7600425 4.5333347 -7.1194363 2.8291814 -3.1676545 1.5611844 -0.7169566 -1.5749404 2.6934896 -4.571383 -2.05092 1.6540495 3.9837623 -5.091109 -3.7308645 2.4750683 7.0066957 -0.14772198 5.6586423 -0.029067684 -3.5781631 1.2000661 1.5817187 -1.5648783 -2.238521 -0.20608488 -1.6147916 0.6378697 -2.9225948 4.191596 -3.9044642 -0.6743462 -2.04052 2.698912 3.8386722 2.2869163 0.093002 -2.9826117 -1.8495196 -1.036483 0.45949185 -2.5278606 -0.8987264 2.0981061 -4.2938795 -0.82159555 0.38037205 0.12408535 -4.357119 1.1855599 0.47881106
可 -1.8328214 2.8149574 -0.26209468 0.4766945 -6.5409193 0.4878966 -6.9671416 7.2696586 5.0924478 -3.2108014 1.5311661 0.4798819 4.4705744 1.0133096 3.4094048 4.782918 -1.7318887 -0.9891197 2.9523609 -1.8552973 -0.058962364 -3.4130247 -3.955621 7.645596 -1.0200353 -0.3884049 1.5386322 6.773146 -4.7327595 1.5884567 -2.8539534 -0.74673593 2.3739023 0.8973073 1.3502363 5.5269914 5.993964 -2.7432923 3.1975136 -0.60101783 -5.290023 0.99375844 4.2694774 -0.51733935 -1.6152436 -0.101290256 -0.5714792 -2.5269039 0.35877445 -0.37074286 -6.917661 -2.2392688 2.4858625 -4.2571144 1.8306205 0.8450516 3.3561826 0.8391856 2.5145726 -3.114103 6.928934 1.164223 -7.1243973 1.1801361 -0.94293165 -1.0252342 -0.6898813 0.59270096 3.1659048 -6.2256894 -3.584635 6.723784 -6.402396 -1.8683585 -2.8017642 1.4437449 -3.6069994 -4.62323 -0.28482664 -5.4564543 0.04096941 -2.220277 -8.999825 -6.543697 -2.1442065 2.9684048 -3.3021543 -8.540162 -0.4373714 1.9365807 3.9102068 -6.835672 0.5691655 2.3103843 -5.807583 6.485517 -3.7557411 -3.9201908 0.099757195 -2.1449478
能 -9.517976 1.6351503 -0.64343506 5.9542418 7.728569 3.8321576 -4.093005 -3.8533173 2.9065187 -6.2368684 -2.9421902 0.8132281 6.295483 -2.2661624 9.563722 4.016122 -6.7802353 1.0100515 -3.0398438 -1.187006 5.3163204 -3.738563 1.0251436 -0.5748894 -2.2934084 -0.21473202 0.9427676 4.3518367 -1.7410055 -1.9633921 -0.028170848 -8.729915 0.18703161 0.737423 6.124288 -1.0244572 -4.2729807 -1.7722532 -1.6090112 -2.123167 -5.7599545 -2.4344058 -6.397846 -3.067595 2.1445653 -3.7663183 -0.8719714 1.7445639 -5.065102 -0.74562746 6.01686 3.6306167 -1.1482853 3.7454991 -3.3959908 2.3288229 -5.85103 -3.6560235 -10.227874 0.09536568 3.9711885 3.1294568 4.0243964 2.561891 0.7746345 -0.82610136 1.2193079 1.5125841 -1.3341987 1.9153304 -2.372769 6.379815 1.3641478 1.2832166 2.0686116 -6.8313184 2.639662 -2.2329803 4.30434 -2.4807618 8.390977 -1.9207654 -6.134726 4.427756 2.2574196 2.7930646 3.5445302 4.715603 3.5052207 -4.3854804 1.6068956 -0.46824968 2.2507432 4.7350106 1.3520968 -3.8699932 1.5020745 -2.3829722 6.396993 -2.1421502
到 -8.383464 1.4382724 -3.1271098 7.207265 -0.90070033 1.4330335 -9.751291 -0.63230526 3.5890524 -4.577681 -3.8396683 2.6403196 7.184663 -3.919605 4.923683 4.714948 -5.7812314 -4.682246 1.551158 0.4203316 -0.11451395 1.4633191 1.7561795 -2.2370436 -0.19264978 4.556449 -0.23659213 2.554377 6.2596517 0.2653254 -2.0796201 -2.0223842 4.0144386 1.4740058 1.6691849 -0.9807696 2.2180269 -0.6359716 1.3654109 -1.8444947 -0.758393 -1.8811713 0.8286862 -3.7545238 1.4345062 -2.0089972 -1.8217973 2.180084 -2.1568968 1.1749543 -0.631162 -3.2042458 6.329226 -3.0237544 0.7728503 1.3805504 -0.82362753 -1.4063241 -9.89937 0.6607984 4.3223495 4.257775 -4.01689 -6.582589 -4.025845 0.74823356 -7.1067185 -0.73180085 -1.3898696 -1.5615443 -1.7695293 3.54623 0.34277728 -0.41303095 -4.594106 -7.2860923 -0.9037454 4.854415 -6.8485413 -0.21199895 4.288965 1.8473022 0.17634228 0.0459117 -2.2715294 5.37622 -5.2940927 3.0521052 1.8649162 4.97722 -3.3995955 -2.1748035 1.2288079 4.5303535 4.0115256 7.430095 -9.895773 -4.372515 -2.957396 3.8545673
时 -4.8337655 -3.3021245 -0.7873986 2.3859696 -0.5731485 -2.089632 -8.626959 -6.074577 4.210486 -0.61614287 -5.4778795 3.5224206 -1.841984 3.2228444 1.8398038 4.464799 0.07240884 -2.391492 2.5091467 -7.7260084 0.18011498 3.8795178 -2.3739083 2.2871943 -3.45055 2.9052022 -0.63802034 5.6222277 4.354434 4.657365 0.46845472 -7.300225 8.091672 2.3254037 3.6866627 -0.2850721 1.199518 1.7149782 -2.2937078 -6.8514447 -2.63619 -4.1296334 3.0902543 -5.008972 1.1385742 0.7833572 1.8817463 0.92445546 1.5485008 -1.7442083 4.3904715 -2.186775 2.2811167 5.0463743 -0.486023 2.7666216 3.2715049 1.8886886 -5.905299 7.989854 5.2262306 4.5038996 -5.2433615 2.046172 -5.5340056 2.6688855 1.851917 -1.1879526 4.1543407 -4.1057277 -6.938542 6.259285 -2.708047 1.6720642 -4.2944317 -2.561183 -4.190451 -1.9923856 0.59429556 0.87124544 4.384115 0.48510572 -3.2434824 2.1315684 -5.5280833 -3.1139207 -6.7355394 -1.28908 -3.840595 -4.57646 -4.5211263 5.8115325 -1.5452155 -1.5279838 -1.9056524 -3.2246559 -5.889608 2.1006722 4.0383325 -4.568693
生 -2.3653831 -4.824011 -0.019144548 3.6651874 3.6416469 0.80422294 -2.158284 2.5851042 -3.7335818 -0.7952429 -1.0257257 3.848944 0.6894985 -3.2152896 16.550457 4.6088915 -3.6832633 -0.0516795 -4.911491 -4.8446035 -0.44910997 0.12646998 -0.3787908 3.1458328 1.647195 5.00322 -5.146233 -2.4309833 -0.28719553 7.2382145 1.0047611 -11.42973 -1.8067281 5.219978 3.9425719 -4.754646 -0.41323566 2.4230664 1.4291413 -8.8324795 -9.516047 -2.9525547 3.1756468 3.9811125 -0.46674263 2.819225 -2.926649 -3.945349 -6.946942 0.25275046 -1.1976707 -2.0715737 6.2391305 1.4003704 -2.8451157 4.491524 -8.908769 -5.7639823 3.6484222 4.1235805 3.1675467 0.3632558 -3.5167255 -2.2094946 2.4573383 3.2285826 0.8991835 2.136574 -1.4736171 1.4810424 -2.3593132 4.591575 -1.7825166 2.132048 -0.4864535 -0.016751144 -0.9671923 3.0648456 -0.47539732 -0.3947031 0.45566362 0.77746284 -5.622933 0.61749446 2.0192552 3.36942 1.1237776 -5.0254903 -2.9278529 -5.2956514 -0.5677398 -0.5693503 -2.4081907 -0.39754948 6.031148 10.775826 -0.36839768 6.4825664 -4.98222 0.5527134
要 -3.71804 2.357048 -0.68915296 6.869423 1.859734 -0.15234981 -4.629318 2.231514 -1.3768567 -9.458546 -5.1877437 -2.9753046 1.035131 -4.845442 7.4058743 6.3174524 -5.6392817 -2.845562 -3.309902 1.7454611 3.1017354 -2.1611338 1.2676967 1.2783445 -1.0997348 -0.0058878562 5.7718215 8.116938 1.3745095 -0.21747753 -1.6638582 -1.9767474 11.217881 -2.1921794 1.017045 2.1807692 4.3586197 1.1804653 -1.3871202 -1.955523 -6.9088006 4.413922 -1.0885655 1.0443708 -2.7048798 2.6830661 0.5426364 8.278534 -1.2029628 -2.4696505 -3.9293692 -0.98058885 -4.642647 -1.4617665 -2.0992258 -4.4668627 1.1170111 2.8827097 -1.2225544 -2.5246077 4.3546133 -0.7845979 -0.698623 -0.43142423 1.1459357 -0.19602363 1.8211257 3.759306 6.2511735 4.020855 -2.6446621 4.369176 2.417231 1.143988 -3.3823273 1.1761656 -3.6134515 1.2953881 4.187525 -4.1250086 1.9110848 0.4480346 -5.3910007 -0.45613894 4.852113 2.442823 1.2317824 5.0715 0.4737821 -2.8314261 2.2262383 -3.2044966 -7.1317677 -4.5621305 3.6650858 4.571993 -5.6622057 3.263541 2.7648454 -1.8202459
来 -4.985565 3.8051116 -1.2805037 0.3017217 -1.774436 -0.09209578 -5.2226133 0.77982426 2.3483076 -1.4099876 -2.3109508 3.4492526 5.502821 4.263825 7.3334756 2.6528065 -2.3607738 -2.8819993 -3.1286843 3.3771813 1.3944403 2.2766552 4.1349354 -2.1475773 1.9199331 2.339307 -3.0893574 6.830313 2.4993794 3.182631 2.7594411 -4.9110446 1.9280734 -0.8455771 8.097904 2.8616416 -0.48475227 -4.275732 4.3579416 -4.556466 -4.7490067 2.5850286 1.3391563 -2.9115038 2.4226725 -5.672896 2.4861305 -1.6769537 -3.523383 2.5649478 4.3444195 -0.61050916 1.4636292 -0.25930145 -3.4536493 -4.031761 2.8242161 -2.838246 -8.559519 -2.7237787 0.79478955 4.20134 -7.564853 2.3889513 2.254251 -2.07344 4.9462676 -0.990447 0.2610515 -1.1959456 -1.8793672 7.2539425 -2.158209 2.961591 -4.189275 -4.1518497 -5.686238 -1.1771561 -2.1792617 -4.461478 1.1318703 0.20691271 -1.0802815 0.63198656 -3.4511218 3.1700554 -2.7554357 -1.8013481 -1.5273077 -2.3959138 -1.7971325 -5.847211 1.6486623 -0.092837155 0.53395116 5.003847 -3.1091957 -4.620625 -3.4732666 -1.0585009
会 -1.1188504 1.7890677 -0.0642557 -0.48536208 6.418246 -0.41360912 -4.9021173 2.5222385 4.204776 -2.5830386 -3.178142 2.0664392 0.37601548 -0.97238696 4.3092084 11.22827 -9.218977 -1.2968484 -2.4852605 -2.8999338 2.4777648 -3.910697 -2.424847 2.6298144 2.952737 3.9039502 2.4053016 4.646901 2.6738172 1.9577433 1.3322309 -4.8317466 4.4024534 1.4412031 4.038356 1.969412 3.9816508 -1.7816632 -1.1469994 -6.554443 -3.612066 -2.2785542 2.2772055 -3.8767543 0.031760093 -4.460353 -0.77027565 -2.351872 -2.5692282 -4.759842 5.8533273 -0.0048946147 1.1770127 -2.7724793 0.984478 2.6894197 -5.298151 -0.83688766 -4.5718417 -0.65719795 7.2910414 0.21519485 -2.4765012 -1.1410803 -3.0576632 -1.7716784 2.9936132 1.7838836 1.7411327 -1.7712499 -0.0323365 3.1134381 1.41844 4.4439526 1.5232718 -3.8805003 -7.743573 -1.0266188 2.4515157 -1.7150122 1.209178 -1.3904058 -3.664306 -2.1419318 5.813461 4.4405565 0.96505123 3.290895 3.6743402 -6.373994 2.6681142 -4.3845506 2.2728367 1.4346246 -3.2558508 1.2130929 -4.588952 -2.1476307 0.79898447 0.40815043
1 -2.256634 1.0128325 3.0379765 -7.7309055 -4.504696 -0.5175548 -3.649017 -4.209957 2.637257 0.18358386 -3.0549088 3.5770013 1.9241922 -1.5177633 3.6590102 -4.056994 -0.53470165 1.2290158 -3.4505308 -1.2011694 0.41037616 1.7274737 0.20324275 1.4207493 3.9379237 -1.54035 3.7632926 0.27656528 5.0596323 0.5974102 -1.7453543 -1.4821688 2.0430448 -1.7600096 0.07232966 -2.1355848 -3.4569635 2.4887035 0.1670414 -6.192664 4.89278 4.2278953 0.56816536 0.3338515 -0.53843504 4.8020916 0.55495924 -2.6722538 1.6116004 -1.0074736 3.3047254 -5.0991344 2.1938918 -2.2902424 1.9478556 -0.009938657 -1.8149183 3.1315022 -1.8279959 -1.0751014 -0.56915563 3.4872203 -5.155466 -3.7655091 3.848167 5.054166 -0.677753 5.7102537 -0.08404706 -2.6651275 2.816719 0.19257851 -1.9909133 -2.988933 0.13174504 -3.282728 1.0960869 -0.22163989 3.2295408 -4.029925 -1.699472 -0.5213544 3.5378108 3.6562734 3.7890577 -0.5122709 -1.0622773 -2.4294178 -2.9139552 1.2156445 -1.1633934 0.84015906 2.7921355 -3.3993125 1.45863 -2.0776937 1.4327918 -2.7281814 -0.073424615 -0.73371065
it 5.956339 -0.7034845 -2.746071 1.0403126 1.1963278 -4.6771493 0.42026952 -0.32939497 0.2675592 -4.3534865 -0.39245576 -1.3875134 -0.76487625 1.2820461 -4.036463 -1.0178884 1.2450987 5.770745 1.4800009 5.4724536 0.9098853 -0.65088296 -0.35061696 0.056548126 0.4413887 -4.0196424 1.2954977 -5.41936 -4.089497 -0.19495462 1.6630112 -0.30386287 -0.91434854 0.04668988 1.8888557 -1.5098628 2.4495537 -1.6044934 0.25356138 4.2526245 0.83679694 1.2547208 1.7074952 2.464911 2.0552292 1.5505487 -0.35924965 2.4897947 2.2971778 2.1447663 3.5672312 -1.0564631 -2.8908355 -1.2986331 3.3144944 -6.404474 4.208642 -3.7826517 3.452049 -0.8084727 -2.5200315 0.20426506 8.811406 -2.3035705 0.8057917 -2.994251 -2.772544 -0.26341978 0.37684825 -1.2900451 6.6804895 -3.2762861 -4.3755198 1.1067775 1.3430451 0.57787335 3.5026474 -1.8651005 0.8420067 4.324805 -6.94985 7.1422663 1.1621814 -2.6044147 -0.017337374 -1.1039519 2.496369 -1.0870577 0.9720994 3.45055 2.3203166 1.4441279 3.523543 4.311518 3.3391643 -2.6972814 3.1489124 -2.3312218 -3.0222085 -0.66917866
于 -2.9140933 2.1473165 -2.1150954 1.9755421 0.7761964 10.846404 -3.1265717 3.1273913 2.334518 -2.0399227 -2.9133856 2.9413083 1.7025214 4.6224217 7.8067236 -0.8915468 -1.4460039 -6.5519056 1.7837764 -1.7767738 -1.372803 1.3351266 -0.77890027 -0.15158194 0.36063793 -1.3375068 1.3012197 3.690466 -1.0626639 3.3008733 -0.030975984 -3.9982553 -2.0510406 5.0248866 0.86823344 0.16686265 3.5878146 4.722689 1.2998939 -3.5227182 2.2885141 -1.9500074 -0.21013704 -4.2446055 3.1194105 1.9003828 -4.6132545 -1.8737501 -1.0993558 -0.8887379 4.3707294 1.6621408 1.6348145 7.6350684 -0.059576906 3.087674 -0.8167207 3.1118853 -3.2876053 -2.747727 2.37651 -4.9833026 1.1979856 2.1888866 -6.706546 9.262805 4.5661654 -0.801391 2.9893317 5.1332192 -2.1769042 -5.155922 -2.3725855 -2.9389446 -0.36093512 -6.635397 -3.336414 -1.6455437 1.3272898 -4.5734787 -3.7070296 4.067632 -5.151215 -3.1485617 -0.7685357 2.720701 2.9849 4.9785967 2.435438 0.058600236 -0.7793037 -7.62959 2.7952032 2.566318 1.8999032 5.36698 -6.422134 -1.2994274 3.0365417 -3.0232487
行 -6.4141455 8.965871 -3.5200934 4.449593 0.75512445 1.6184107 4.423296 3.1128016 2.9978013 1.9948689 -6.159078 -3.363597 0.08981013 5.878509 4.4069757 2.7461727 -2.2781193 0.47777992 -4.061194 -2.3902645 0.17651296 2.321849 -0.9982313 -1.4694408 -7.94226 1.4803791 -7.853259 -2.970458 10.591088 10.3595085 3.5210557 -6.2950068 0.5133381 -0.32653737 10.607304 -1.9587507 -0.5158379 0.83348066 -3.3466332 -6.6110263 2.3152096 2.751621 -5.878753 -5.6290684 -4.241453 -0.7183228 1.3888237 -0.8676676 5.4200573 -2.7483087 -0.043799303 -1.3242676 2.3477242 -1.3992224 -0.7316526 6.5840816 -2.7450151 9.618087 -9.698054 0.40212566 7.8670764 3.7468648 -0.21067883 4.9078636 3.011018 -1.6188966 -1.9542679 -3.3876755 5.053568 -2.0480335 -5.812214 1.906446 1.1153623 2.7257428 1.4415584 -3.7264524 -1.7431949 -0.5694213 3.536256 -2.561101 -0.3220291 -4.5509567 -2.7240949 1.5306803 4.783055 6.724838 -1.626422 -1.3570031 0.6281851 -3.5908122 -1.37002 -6.0905523 0.004623508 3.3648896 1.6452605 7.4118857 8.489489 -1.9226805 2.0147922 1.7009447
分 -5.745201 4.7669573 -5.7153735 5.2166576 2.6149812 4.7654243 1.703061 1.2903119 3.1617332 -3.2713144 -1.4479638 -1.3304327 1.5063281 -6.658572 0.5223578 4.235599 -8.582078 -1.0019616 -0.7037887 -1.0301278 -0.35726973 4.428205 0.043632302 1.3768562 0.109284684 8.332632 1.8660303 7.684473 -0.5182781 8.567555 4.3757815 -2.2687106 -1.4472289 4.176736 -5.9356246 -0.670222 0.47731206 1.2872285 -0.9384003 -7.1052895 3.1547494 7.299199 -2.567223 -4.4764633 2.60604 4.580029 5.934937 -0.2558075 1.1902027 -6.1766267 -2.566061 -4.571102 8.00076 8.201246 -4.661758 1.5788277 -6.771175 -1.6119094 1.6028098 -1.4265301 -5.358171 1.2841271 -5.432553 1.3257085 1.9748344 4.6126347 1.3671899 0.81797045 1.2170674 1.7030324 -0.6713354 -0.420821 -2.192587 1.5377312 -0.662334 1.0596571 0.29922128 -1.7381856 8.388235 1.7428272 12.843456 8.441942 -5.926359 5.790129 3.5948339 5.6224484 -1.3980849 -8.660023 0.5283764 1.2561643 -6.50546 -4.110734 1.5914198 0.23671907 -6.3171 -0.011493044 2.7130706 -3.6254213 2.1441588 0.6790064
发 -8.225426 -4.548988 -1.654908 4.6444435 0.82143605 2.8533077 -4.749831 -2.4126346 12.378771 -2.1817458 3.6720119 -0.07281481 -7.1187425 -4.1714163 1.5389093 0.22675437 -2.941395 -1.9707134 -6.415282 -0.05946693 0.4321764 -2.8441842 2.035767 -6.800421 2.4756565 2.8744164 7.024947 5.240654 9.211698 1.7066746 2.4285524 0.8074348 -2.8974416 -0.270953 -2.5901673 4.0957193 -2.0514176 -7.1516266 -2.1118968 -0.022784272 0.5010353 4.4281535 -3.0630372 -7.9302063 5.8459177 -8.861029 -1.5227929 -1.4097503 3.1188753 -1.9781567 -4.9600554 -2.3843045 1.2516903 -0.4239859 -8.063921 1.6807389 -0.13643838 2.4064434 -3.565877 -0.05970033 9.62506 -2.992654 -6.083892 -0.9452804 -0.5225251 1.4613106 7.5290675 4.9048696 0.58974963 1.1992862 0.22590373 4.281344 4.131086 -6.0632844 1.507895 -6.052072 -5.9428344 -2.0879288 3.5820255 -0.095663756 1.7757434 4.2993317 -0.2653479 -4.3628373 -1.2829671 4.0205884 3.571658 -0.1653473 -3.0661705 -1.0608926 -2.8664129 -2.125712 1.4792961 3.3622906 -4.8003664 0.61453164 -2.0754752 -6.9700856 0.29668096 1.360823
性 -7.2201843 -0.07864966 1.076213 1.2008482 -3.228347 7.4354386 -6.2738314 2.3949447 2.558044 -1.646384 0.06330444 3.4469543 2.027074 -1.4119195 6.1588783 -0.83558697 1.8433167 -8.345381 -0.6359041 -2.368 -1.5003408 -1.1451412 -2.1827571 1.2683872 -1.509246 -0.2614448 -1.7248887 0.45405653 -1.7723982 7.3232207 -1.4357854 -4.128677 -8.739157 5.6721396 0.94462055 -3.271814 -2.3659248 -6.308136 -2.3840206 -2.1882355 -0.43265447 -2.2469816 -2.8542037 3.4918823 1.8161054 1.7733912 1.4479651 -0.5193631 -3.5120366 -5.435175 -0.77496976 -3.3833778 5.657824 2.8937073 -6.2276907 6.3400183 -0.9518013 0.577047 -3.2224283 5.36934 1.6772635 -1.8837376 -2.1158884 -1.318147 -3.7268264 0.94998676 0.70710176 -0.15139788 3.6958256 0.56289166 -7.117032 1.3370608 3.7466898 -1.5708667 0.10908967 -2.1252794 -6.444908 -4.4308505 1.2406174 -5.218974 5.0242734 0.71054053 -5.010972 -1.834128 0.1578635 5.9545746 5.5002933 -3.7156541 0.12618747 -3.2047563 2.1585202 -1.5851748 -3.0287797 -4.0545473 -2.6050615 12.100964 -0.073763035 6.162334 3.716037 2.8217843
are -0.9957511 -1.9451844 -1.9438119 -4.413317 -5.4046826 -4.7048416 -1.6459419 -2.5854897 -8.413167 4.046475 0.47086594 -2.3845253 0.009791462 -2.6952164 -8.822745 1.9594876 7.423463 1.3318237 -3.3613667 6.215118 1.9537687 6.9910445 3.1379082 1.3841006 0.7170653 0.3193707 -0.020016206 -9.562459 -5.4762 2.8227513 -2.9687586 9.913183 -4.4855485 5.6326747 -4.8436575 -2.0108383 -2.0247853 -1.74206 -2.0078332 8.128495 4.6495123 0.004293193 6.3270354 -0.0598816 -3.6264062 -2.9124677 0.80847013 3.894574 -4.238596 1.7783377 -0.78809273 4.91951 -0.771047 -4.86528 2.18509 -5.2548847 6.7450395 -0.3336624 8.061122 -4.200802 1.9972026 -0.17587058 7.0338197 3.7840214 -3.1235518 0.3875394 -2.7171922 -0.21029903 -1.7047924 3.9495468 0.90321785 -4.047135 6.587647 0.30602247 -0.5193199 4.727704 2.4589386 2.68177 -1.2389497 4.1691995 -5.921713 -1.1655562 1.228027 6.4650946 2.7317376 -3.9776428 -2.3188643 1.3559685 -0.4622517 0.7003611 -1.8954158 -5.2748013 -4.7244105 -9.3544655 2.890571 2.6744864 0.5479957 3.412058 -1.6363883 -2.8866978
as 3.4482822 -2.039316 0.79249 -0.5413409 -2.268766 -1.2755512 -1.3607252 2.319591 -5.0487957 5.899016 3.9673393 -1.683044 -1.0265424 1.6520728 -0.29499882 1.1528519 5.537475 5.510293 -0.64919376 7.972085 2.5857823 -1.991796 -2.4160383 3.5954552 0.9807798 -0.14318113 -2.8488848 -7.8778615 -1.4385687 -3.8326156 -1.1486886 5.9737163 1.189463 -0.007818848 -1.5924001 -4.907806 -0.5601372 3.5220802 -1.7401131 5.43333 -1.2779424 -0.98039776 -0.82574195 9.017439 -0.70238966 5.253652 5.3899984 -0.74372256 1.8092495 5.7812543 -4.3898582 1.2058996 -0.89991516 -4.9760685 3.8773263 -5.8217287 -3.5906951 0.0052439147 4.4113264 -0.26844984 -7.9114866 2.9117246 5.4203806 2.0607178 1.4150902 -0.16795212 -6.337715 2.2720656 -6.3471045 -2.7514927 5.8302994 -1.467575 -0.28468847 2.0679312 0.39497355 0.46750015 5.479327 0.9010459 -2.3808517 -1.2297249 -3.2260172 -2.4179575 0.2545512 -1.8481858 -0.44817904 -6.3535748 4.1681466 -0.057856295 6.382483 3.0989408 -0.9983382 -0.8158047 -2.9061635 -2.8247666 3.7724426 -4.840927 1.7926154 0.35725787 2.506077 -2.61172
地 -5.856483 3.9752598 1.5380126 -1.258849 2.842707 5.8287673 -5.9595695 0.31540734 -2.8410175 -5.5568795 0.062270906 2.7759042 3.224714 -0.7574184 9.6083555 7.3841486 -0.11179267 -0.019796535 -0.69207454 1.564661 -0.6585893 -2.2772086 0.39784375 -0.118887745 -0.96805274 5.1069183 -1.2489252 2.8046246 2.637413 3.4716828 4.2273474 -4.888978 2.409246 1.3305641 2.477045 1.7403214 -2.0250545 -1.7422676 -2.1951928 -3.085688 -1.054177 -2.4367566 -3.7744398 -6.2215466 5.1519895 -2.5797472 -7.7128253 2.4732792 2.9700782 0.79298806 0.77903813 -2.1953993 4.6229854 8.854331 -2.9617167 2.5490417 -0.24246125 -2.1225855 -3.134119 -4.123769 0.122663975 -0.25985953 -2.2382362 -0.36700383 -1.8660711 0.122877754 6.7724977 1.8462902 0.63071364 -3.5024061 -6.9434853 -1.7537894 0.8090339 0.89037436 -2.149673 -2.195783 -5.534822 -3.003358 -5.264537 0.56762284 1.7914414 -2.3371623 -6.455195 -0.7347705 0.114581235 6.9249754 -0.4247448 -0.87137455 -6.140972 2.461273 -0.08740255 -2.8912241 -1.9819249 -1.055553 0.23649657 5.759689 -0.4275614 -0.48606282 -1.2244425 2.0095837
出 -3.6158934 2.8716512 -7.4594073 4.868221 1.4846373 3.772037 -3.4144862 4.1731615 2.8322673 -0.547091 -2.3821406 -2.8227022 -0.57543635 -3.4621992 4.4805846 -0.45790207 -6.520787 -5.9862375 -3.4354155 -0.6431971 3.3611593 -2.0853834 2.2067397 -7.131671 -2.0424385 0.42998898 -1.6704493 1.5584751 6.5662746 0.4325417 -3.3925455 5.498079 -3.2823968 0.9888578 -3.3309588 3.857216 0.27836335 3.635268 -2.1022124 -5.507961 -5.0834346 -0.8760621 0.1685824 -0.5824036 8.219155 -1.7639837 -3.9057124 6.030739 2.6948066 0.19114582 -5.5406923 -4.5283914 8.688186 -0.82653564 -2.7107177 4.5789104 -4.325402 -1.4239272 -7.3770432 6.6316924 8.474273 3.227611 -2.8598235 -6.1428595 -3.8322427 0.42412472 -0.54262775 6.579633 4.035345 -6.399387 -6.018293 2.3232226 3.4676118 1.9205513 -0.74057263 -8.256828 3.5564218 2.2159622 -0.49924642 -0.08387648 2.7014346 -1.1973933 -4.87015 -0.54228044 3.0596297 8.719864 -6.834002 0.024708167 0.16572064 2.9887147 1.5954366 1.706629 0.9851162 2.1759975 -0.07211817 2.6694422 -4.127769 -6.0945954 -2.4215465 3.6851668
方 -0.25144058 5.1203566 -2.2499704 -0.0070289834 -2.9838188 9.681241 -1.0071328 0.62243736 7.7925286 0.99857193 1.188362 3.004026 0.10048489 -3.8222353 -0.030303381 3.4370046 0.6400281 -0.48585197 -0.75932735 -8.997452 -0.23825611 3.052518 -1.4005904 -5.5355268 0.011041186 -2.130117 0.2950409 3.772496 0.9257384 -3.5379443 -3.1706083 -0.8320925 1.8254832 -3.2816327 -2.5999393 0.15254506 3.114772 5.8131084 -0.42118096 -0.7230893 -4.1414857 -2.9502046 -4.9990287 4.7468863 -0.9006122 2.1922097 5.1429944 -1.3098776 -4.493791 -1.2427158 -0.34529793 -3.4317365 -4.2853603 -4.135066 -0.67901087 5.0891147 -8.506494 4.3534355 -5.5211554 5.05499 2.103866 5.654948 -0.385988 8.623586 4.5492463 1.234569 3.7115476 -3.8023264 1.5238315 2.9817965 -1.4491215 2.9997756 0.4740821 3.158356 -4.4704146 -3.585678 -1.4766127 4.9130406 3.8306785 -0.80022675 4.667117 5.1112757 -5.831058 -4.7699866 0.19094191 -0.18212344 1.2273281 0.70329475 -0.5321629 -3.4544864 -3.1659865 -6.9662967 3.9532385 -0.023152629 -7.094774 8.18176 -1.6242595 -0.10034495 -0.6527912 -0.23540823
this 4.566842 5.033532 1.7677784 -1.635602 4.8573136 -5.728206 2.226084 0.1342956 -2.5032043 -1.7976923 1.0285404 -0.23733802 -1.2002213 -0.4631488 -9.056585 -4.3267317 1.9778417 6.7598844 8.47687 4.875403 -4.4800897 -0.8258123 -1.3648634 1.2181098 -4.751826 -2.3049865 0.33980837 -7.5420694 0.06096779 -1.4732997 0.2374498 3.160068 -1.2214847 -1.1960984 -2.7627816 -1.6660395 3.0926206 2.365613 2.1344864 3.671514 0.43306193 4.0992656 4.0825663 4.848419 3.869038 0.2142196 -0.45575422 -1.543424 1.9937912 4.961448 3.0609777 2.4946418 -0.5625455 -2.2279205 1.945041 -2.998787 1.8885611 -1.4053178 4.3925624 0.12110553 -1.9325199 0.2939625 2.5316844 0.09765132 1.6018028 -3.8091085 -4.874887 -1.5048225 2.3313866 -0.24780557 4.8799214 -4.9338403 0.2861578 -2.8455386 -0.51360506 -0.67296904 1.2977608 -5.3878436 -0.62009263 0.29921952 -3.2588527 8.308818 3.0670164 -0.11092909 -2.1405761 1.9640722 3.7097535 1.4281282 -0.98268837 4.0031543 2.9666095 3.2682123 0.1079344 1.3227853 1.8271812 -6.198011 0.2654521 -6.900303 -2.0959194 0.5167057
你 -1.3307413 -1.3468033 -2.4178338 -1.2240119 -0.03153321 -2.2528603 -0.9868932 1.2666138 -0.013077228 -4.915944 -0.6170474 -0.2598694 -1.078004 5.260493 1.756765 1.4233214 -4.468031 -4.0353756 1.381241 -0.7122907 0.15746255 -3.4872372 3.0431125 2.9659312 -0.52337843 -5.9739714 -1.8889695 0.6457118 1.1320666 -5.0124097 0.058827054 1.1216567 8.056668 0.15199715 3.4479532 -1.6570659 -2.2298937 -1.1460034 2.1807938 0.27601725 -0.31594768 -0.067321494 3.821261 2.5886056 3.1072307 0.196225 2.0965984 0.6071812 -6.3791304 0.08492696 -1.2287827 2.39137 2.9565766 0.95053315 1.1897063 -3.2051053 2.8932254 -0.66326654 -0.5780339 -2.6820278 3.8140523 3.453762 -3.035489 0.53170466 -0.058484916 -7.380261 0.3976733 -1.7035944 -1.0511985 -3.500614 -3.0472531 3.2691095 -2.3051236 0.29133773 -0.52162117 -0.51977575 -1.25569 2.7167559 -1.4118898 -5.1845713 4.484682 -0.70157534 -5.802731 -2.3644526 -1.8500936 2.4847887 -1.0333459 0.857517 -0.36951184 3.416166 -2.0362148 1.6371944 -3.1860428 5.8891544 -0.8020295 1.1031569 -1.0985713 2.688933 3.9449763 0.51800835
作 0.6539381 7.424454 1.3559573 5.6144233 -1.6833183 2.0919487 -4.462312 5.836544 0.75153494 -3.5595055 -6.599521 -4.358568 0.40333977 0.9073044 8.843881 -5.154651 -1.2426809 -0.47465128 -3.118539 -1.9879359 -3.5511963 -2.3499513 1.3903455 -4.414191 -4.8959417 6.3552904 0.18778235 4.8694377 1.847447 3.5253038 4.6719527 -3.1564996 -2.9731188 -0.21565281 4.074343 -0.21049301 3.8127227 -3.8738139 -5.2485185 -9.250416 5.004899 -4.3802104 1.372193 -6.09661 4.43662 0.37596646 -1.0642318 -1.6478084 -4.2285337 -4.5318384 -1.1003104 6.622328 2.8867986 -0.17103435 -1.2717229 1.7768778 1.0332804 5.010013 -3.9573634 -1.948798 0.8532461 4.9955997 -0.48575696 0.97042274 -1.0428272 -2.215887 0.38291886 -5.0244966 -8.498511 1.1989629 0.5757164 3.186935 3.29825 -1.9270542 -4.9111485 -4.5919876 -9.094714 -3.6655915 3.955492 -6.2108145 1.245513 1.6836431 -0.555896 2.0056303 2.7918942 -4.4822836 -1.8519405 -0.20401534 -8.982116 -5.9278255 3.3260872 -7.9468346 0.8260876 4.428022 -1.354569 2.537052 1.7966992 2.859416 3.3748093 -0.49255562
成 -12.476023 5.3872256 -0.66692936 3.2277317 3.334411 1.9903395 -9.821592 -1.5202216 4.3948894 0.39098835 -0.34862635 -2.40709 5.0600705 -3.8936706 10.656797 -1.9807496 -1.420039 -2.725451 -5.495184 4.5165863 1.567897 -5.202765 0.41934043 1.6303375 -0.47144195 1.1456338 -2.9723861 1.0897946 2.9759238 -4.557632 -0.9048518 2.3380604 -3.1046872 -3.4334915 3.358013 -2.038346 2.4379308 -0.7525583 1.5781997 -7.2814927 2.329173 0.802119 -2.5182807 -9.752213 1.6327331 -0.86544305 -3.1744864 2.4820244 0.9546448 -2.3197691 -0.34514517 -4.2919993 -0.34556475 -3.2578666 -5.510915 1.3236707 -7.174637 2.8383384 -6.225085 -0.17603657 5.1753697 0.019813173 -1.716056 3.0336304 -4.7522216 0.1325728 -2.3128767 -2.985994 -3.0995169 2.013341 -2.851507 1.9887339 9.240814 2.7496676 4.851717 -7.1203213 -9.455561 -1.1920666 4.3817525 -1.6867543 6.3381824 -3.012455 -1.4718661 3.7944462 -5.0538735 5.1295037 -4.614953 -1.5949339 -2.432807 -8.576032 2.6597948 -3.215148 3.3361328 3.0056586 -2.5240097 1.7295836 4.9129443 0.48944503 -1.1797901 -6.1046877
法 -11.606268 1.2359611 -1.6185516 -4.533097 0.18177001 6.144899 -4.9656496 7.18879 1.5902967 -0.9229536 0.12509136 -5.142895 5.8374534 -0.13479295 6.697112 1.5864681 -4.036039 2.1143272 3.391077 2.4846468 -3.824335 2.445165 -2.8816059 1.2535115 -1.5040122 -0.058786098 -4.655426 1.6920415 -0.07429944 -0.11354287 -1.8025104 -6.80485 -0.5187879 -2.7381823 6.162332 4.3125925 1.986253 -3.5842738 -5.673047 -7.0813107 1.9777528 2.9663653 -0.88813716 -4.7549963 2.8354614 -4.7420964 -1.2689638 3.9147725 4.6901755 -2.5266802 -4.3900914 0.45722166 10.079587 2.2990232 -0.90407187 3.353363 9.993418 -9.419299 -2.3794262 4.011909 -1.8415916 -3.0346003 -1.1410826 -0.999975 4.239202 -0.11390655 2.2344368 -1.2231274 0.79913294 0.031916328 -4.6991053 -4.035503 0.9623713 -1.2040527 4.2782245 -1.6257063 -4.507152 0.14546496 2.6308877 -0.09341758 1.2366326 -0.33465552 -2.7024438 2.9883876 3.198057 6.3203425 -3.830718 2.0157163 -2.50735 3.2470827 3.397859 -0.8793084 0.7078677 -3.683143 1.0538663 -0.5483677 -2.8440356 0.70487297 1.5497853 1.8949174
you 8.895092 -3.0474122 3.7910767 -1.6154206 2.9636645 -0.80602705 5.555015 -2.549938 -1.2313609 -0.7306641 -1.2728703 -1.9527289 -3.3036242 2.0041623 -5.0301914 0.17537305 -4.089155 -1.3364578 6.76319 -6.0529404 4.446053 0.5102138 -2.823077 5.018203 3.6766088 -3.6865416 2.027541 -5.404666 0.4665331 -5.6584597 6.907245 2.7233694 0.08480915 0.8365967 3.39212 -0.7268233 -0.55931675 -0.13390586 -1.525179 5.6244106 -4.0092893 1.8047498 2.8941662 3.3994737 -3.6968431 3.3493752 1.3221414 4.3027353 0.50567186 1.0632513 5.360889 0.98002535 -5.2454977 -3.9703343 1.3474512 -1.4720612 4.3572655 -3.2393963 4.3544817 0.36246654 0.8077442 3.4820752 0.44998813 -3.722333 -0.695763 -6.254332 -2.4347262 3.5167854 -3.6334188 -3.8889842 0.74237305 -1.664883 -4.798798 2.2397892 3.100673 8.074584 1.9276994 -3.9712324 1.3196955 3.4024892 -3.0851486 6.8204837 1.7657164 -1.9390141 -1.3709713 0.017445952 7.996118 -0.92568785 1.0817784 8.352248 -0.13132566 4.0222964 -0.6827496 4.2274046 -0.27252218 -8.124252 2.346288 0.08446346 1.7043401 3.8385313
学 -1.070701 8.275201 1.9777341 -3.7235892 -2.3806036 0.5160401 -3.1897113 1.2467654 6.336396 0.6385019 0.71812075 -3.1680605 -7.3363404 -0.27793705 2.2056265 -6.304384 -4.5019035 -5.002668 -0.7015211 -9.59951 -1.8533423 -2.6815841 0.111139424 -4.253287 -2.0089638 4.2955775 -1.576478 2.2756107 3.4969497 -2.7134838 2.433971 -2.243953 -2.6304398 5.54766 5.6037307 3.9429767 4.5230417 2.9878485 -1.6743026 -4.960263 -1.3453224 0.9691845 -2.8845747 -8.256827 -4.155103 -3.491049 -0.4284934 1.556354 -6.229321 -4.29221 -1.0050765 -1.930812 -0.7248265 6.5289717 -0.6043022 3.4748166 1.5724771 -2.2024047 2.7454295 -4.2330914 4.451374 -0.8833091 -1.6215681 3.659749 3.1631591 2.5448654 1.8702108 1.0001081 -0.2502917 1.2399304 -3.5647683 2.5392683 3.656025 -4.0037947 -1.5217458 -5.5494013 -7.310787 -4.306867 0.8366189 0.9987364 9.603402 -0.05759718 -4.0433145 -2.6366365 5.8911734 4.2167106 -4.6842456 3.749387 -3.0189202 -4.9237823 -3.5373952 3.0236583 -1.4969143 0.0994621 -4.4693866 -2.0882995 -4.404866 -0.3018054 -7.149409 4.9249115
be 3.2486982 2.4113815 -1.7285312 -6.5848284 -1.1352917 -5.238507 2.8436217 -1.7911775 -3.514976 8.54795 0.026839526 -0.8032087 3.2670019 -0.37980595 -8.123201 2.5890362 1.5228487 2.2200623 -6.856579 6.393879 3.8921652 4.4356136 -5.331822 8.449938 2.1234138 -3.8767693 -2.7234116 -7.4279222 -3.7626271 4.061785 -0.18037745 7.4915333 -3.1742241 -1.8499622 3.5553772 3.3725502 -0.3571821 1.6319667 -1.1212834 6.5642476 -2.8442085 -0.23419985 3.453357 4.477492 -3.655338 4.0697002 4.1908255 4.242588 -2.1219127 3.5285654 3.8771896 4.4421473 -9.099731 -0.42829385 -1.829785 -9.653321 3.1661785 3.1266134 2.2328799 0.048597522 6.88801 -3.759562 9.747342 2.718126 1.2461357 -1.4735748 -2.0163534 0.8310238 -2.454327 1.1429898 -3.315973 -6.327659 3.1343544 -5.445667 6.9886847 3.980227 6.18169 1.1000452 -4.719026 7.0654016 -6.6232514 1.6418445 2.5352774 1.019007 2.6584055 -4.1951833 -1.3742406 7.3961515 1.3116236 11.276753 0.8628368 1.5764905 1.5738095 0.8380632 -3.3148632 0.15752782 0.24241996 -6.2822933 -4.8532243 2.8901849
过 -3.8550956 -1.2762482 -2.7744682 1.1450765 -1.7860941 -0.13194354 -3.8970497 -8.779568 1.6199926 -5.6963797 -2.0697548 -0.2926983 0.94038796 -2.5686233 0.3265013 6.3168054 -1.8942615 -0.4316445 -2.220554 -0.93835366 2.255582 -4.7186675 -0.31653422 0.5011412 -1.8782691 0.24568664 0.7031017 3.6431832 4.1048985 1.0310612 -4.2969627 -1.363732 3.0676572 2.6946979 -4.55572 1.1692783 4.8709617 5.0602994 5.6235075 -5.063883 -1.0848062 5.0194387 -3.949218 1.4311196 -4.561523 -0.22237639 -5.030753 -3.0251105 -6.751688 -1.1403471 -6.0738406 -0.4282965 -1.9615824 -0.5715245 -5.650322 7.075159 4.6526623 -6.5821295 -10.519815 4.766683 1.1321768 5.7047515 2.3754873 -2.3562 0.6107012 -0.8247402 -0.9298935 0.92442125 3.9624214 -4.5297685 3.9041867 -4.161838 2.6633246 1.8782884 -2.1692665 -5.9378533 2.448305 -4.1058745 -6.6540666 -1.5350286 4.6276636 0.93397963 1.9117458 -9.875784 4.9886565 8.730572 -6.4208503 -0.8366085 1.9175303 -2.0788975 3.1723711 -0.15063784 2.2258465 -3.4370842 -1.6533266 3.773806 2.6753032 0.6174699 6.008315 -3.8508651
was -1.4953562 -0.977873 -0.9058402 -2.5276906 -1.585407 0.0751665 0.0019235417 -0.07468852 -8.464269 3.8478637 1.3517989 1.1567494 -0.49848595 1.1705712 -2.904802 0.2863586 10.491269 -1.5916226 -2.0779269 0.60413384 0.4467608 8.619263 1.7064455 2.9419441 -3.020497 2.4818747 -1.7480563 -4.1585946 -6.2519045 2.4058597 -0.0008984273 5.445237 -1.1822214 0.2910316 -6.3129864 -3.9550834 -4.486074 -2.945598 -0.25812614 5.5027704 4.6901345 4.851448 2.918264 5.4099216 -0.46330148 -0.21182173 4.6404567 7.0279107 -4.3395085 -2.9549809 0.78231335 4.1330338 -8.213019 -0.796061 -0.38837543 -3.4357784 6.354316 3.8072743 6.706558 -0.96284926 -3.0507686 -0.8768957 1.7413157 2.5463345 0.9550983 1.3927794 -3.2322729 -2.3452969 -5.883852 5.805136 2.3396728 -5.8682117 -3.1604311 -0.97927094 0.67599905 0.27512327 4.0526476 0.6304336 -8.386307 2.6308742 -7.075561 -3.2337432 6.5373287 6.699698 3.7396023 -3.7950416 -3.585941 6.3028316 1.567403 8.456746 1.4001479 2.2065866 -0.04409479 -5.000511 -1.527153 -1.9661424 -3.9440634 -1.7968781 -1.589424 -1.6842368
by 6.3058405 -2.6677308 3.286331 -5.2068486 -2.91761 1.6394285 -0.30131495 -2.9936302 0.690213 4.50051 -3.167771 0.78159016 4.184122 1.5364231 -8.475547 3.519404 2.1912453 3.8564346 -0.23550569 6.686287 -1.3747926 2.3684015 1.7711799 -4.318688 -2.8008409 3.77433 -1.5494007 1.9900928 -4.0384035 -1.8830191 -1.9095438 6.9578414 -5.5486436 -1.583083 -1.2499186 1.6948006 0.102865905 2.5222251 0.44715738 10.358615 -0.8376979 2.9591148 0.9646279 1.6702105 -1.2254333 3.3376114 -0.9235359 3.0751615 5.917412 -0.37015006 2.0945628 6.827544 -0.19728449 -3.816396 5.0379186 -4.5200686 -0.106106326 -0.2527003 -3.092477 -3.990159 -7.7942066 0.040154126 1.7405083 5.378967 -2.280131 -0.3109642 -1.3345201 0.5424363 -4.4180627 2.5228932 4.484377 -3.077816 2.383495 2.7664328 0.17060308 -2.4587708 4.199666 0.93749285 -3.6865878 -0.3694217 -0.60284334 2.0651422 2.7915578 -2.0384688 2.1556473 -3.0650127 -1.734663 5.7438693 2.7144318 1.280433 -0.61563414 3.280309 0.28951114 -4.680535 -2.3655055 -8.68788 -0.8647247 -0.22544293 -1.156051 -10.189968
年 0.5512497 -8.280675 -3.6210816 0.46656656 -4.837927 -1.4806218 -0.74280643 0.41652784 -0.94272023 -1.6829118 -2.4055893 4.6326723 -0.91146666 -9.070092 0.07933285 5.760601 -1.2434157 0.32749292 -4.157983 -1.5353336 -4.6637406 0.94238865 -4.1936307 0.7985879 -3.8807344 3.209384 5.048364 7.0805616 6.7938247 5.519287 -0.5659225 -10.38277 -0.0098510645 -0.13596675 0.9145738 -3.4311998 2.2486281 7.8666925 5.2244053 -11.711867 1.7335343 0.22618331 5.488511 -8.651829 6.8760214 3.5140073 5.6505985 4.524411 2.0423753 -0.67259616 2.6537585 -0.9648673 2.5273404 -1.1396921 -0.50300634 0.2546171 -3.5790138 -1.3304746 -3.5748205 -1.3855352 8.5909395 -3.7265267 -9.341375 -0.7892921 2.5344474 4.9572377 -0.90128875 -1.3358353 2.1650538 1.0165007 3.701336 2.452415 0.41997027 -0.6623505 -1.8464514 -3.7928653 -1.7845427 -0.20634991 -8.360558 5.117076 7.0068493 -2.8839972 3.2757568 -4.136604 1.5322936 6.555194 -5.450629 -0.4331756 -1.4620198 -3.040569 -8.288939 3.0244243 -1.3119004 -0.8908178 -3.620939 -2.0104246 -4.9291186 -0.20819758 7.2015023 3.8756373
2 -1.4693283 0.80688995 3.5393376 -7.3514414 -4.0067954 -0.6366922 -3.49545 -4.2481875 2.4976792 0.1878642 -2.102701 3.2346995 1.4630892 -0.9599917 4.0226545 -4.139286 -0.74414796 1.6624446 -4.1769633 -1.1169119 0.52382106 1.4114141 1.3386486 1.1591223 4.266595 -2.1918592 3.4656847 -0.07405208 4.775713 0.25451747 -1.5251417 -0.8245951 1.7166718 -1.2957522 0.10109907 -1.7889929 -3.6680708 2.1991577 0.14819358 -5.3656106 5.189651 4.111726 0.93632686 0.653179 -1.6658369 4.0617437 0.6632448 -2.80957 1.6099148 -0.9673843 3.4706624 -4.3456664 1.8369193 -1.9827483 2.253863 0.25589156 -1.4201589 3.3614538 -0.7475559 -1.2226948 -1.0528203 3.8674583 -4.1146736 -2.488654 3.715808 4.8855066 -0.27281377 5.8766975 -0.12424984 -2.9983654 2.2228222 0.22325213 -1.4978462 -3.0238142 0.7953625 -3.5720322 1.4905359 -0.36656058 3.073438 -4.5398335 -2.4307685 -0.4023951 2.8995624 3.4604657 3.7582307 -0.6720472 -0.9460044 -1.8952124 -2.478188 0.8102452 -0.69536257 0.6743613 2.8454542 -3.2321424 1.3366779 -2.2294257 1.5338833 -2.4801788 -0.38026693 -0.9709285
多 -4.574477 3.265354 -1.9416444 1.556011 -3.7959757 0.16788118 -5.5690465 6.113654 3.6102467 1.1312212 0.90277207 -5.5850325 2.919175 1.0593004 8.48385 4.2260604 -9.047438 4.14159 0.06333881 -4.005507 2.4665012 0.9362129 2.9128816 -1.8610859 3.0594642 -0.009490498 8.008835 -2.255271 0.001978904 -0.50230366 1.4935453 -3.9235613 -0.11100902 -0.8228111 6.1055326 2.3931322 0.05453264 4.2886 -2.177457 2.2762105 -2.83662 -3.9567418 0.5625331 -7.3437595 -2.7506707 0.27854818 -1.4490901 -5.1530495 -6.1193485 -7.892137 -2.775457 -5.5583634 0.6558078 3.9942687 -0.21681176 2.2975495 1.4389929 1.4924358 -0.9219182 -1.8432366 1.0418018 0.7524323 -5.1040792 -3.5505297 2.9388597 2.428793 2.1038542 3.8297136 -0.5730544 1.6533438 2.3827872 6.2492533 6.690514 1.2398217 -1.3399078 -1.9951304 4.2246532 -3.2206018 -0.45551622 -0.7327393 0.39065927 -2.456622 -5.9183025 0.20623012 -2.8227735 2.4406178 -4.953067 -5.05308 0.9836252 0.5150032 -3.309123 1.4526756 0.8377009 1.8730096 0.046113472 3.8460298 -3.63637 -0.7851552 1.302964 -2.8385124
e -1.783228 3.7219253 -1.9836081 -2.5111606 1.0634773 1.1079789 -2.490101 -2.33039 3.5411084 -3.5801659 -3.1409562 1.4561526 -0.3782439 1.7752074 6.619126 0.59043866 -0.14048429 -0.025540574 -2.993423 -3.383192 -1.1653123 -3.624768 2.1383815 1.8099115 1.4983282 3.8159342 0.5378183 0.86661834 4.045428 0.5252251 -0.9673023 -0.34389496 0.24715583 -2.131636 -2.6620114 -2.2228181 -2.4201405 -0.6000899 -0.1469715 2.506358 -2.5039504 -2.0295255 1.4370575 3.1277914 -5.016767 -0.5432071 3.6140747 -0.28236952 3.1868596 2.3330953 -1.0976002 -2.2978663 6.7264123 -1.6670396 3.1900856 1.541154 1.3998815 2.3929646 -2.860066 -1.3140911 0.27370274 2.6340737 -1.3411369 -1.5380057 -1.3273599 -1.6114703 4.802728 -1.8463924 -1.4751697 -1.1305364 -5.030119 1.033241 -3.2523127 -3.372003 -0.49967888 0.43240374 3.4034843 -2.1697714 3.430987 -1.259228 -3.302852 1.4772758 0.8252211 1.478604 1.503126 -1.7724781 0.093239255 3.1596546 1.0463809 -3.296044 4.824535 -4.6721554 1.8779057 0.3752211 0.32687557 -2.2045035 0.4757168 -0.9845632 -1.6445514 -0.50159144
现 -0.77257943 -2.1813004 -2.1712523 -0.11523497 -5.568549 5.509376 4.4626184 2.799842 0.7800048 -3.8631709 -2.9365904 1.5449724 4.254263 -1.9799297 1.7497236 2.1403654 1.3855153 -1.4926387 -4.460881 -2.1106055 -1.0345613 2.451322 1.4788731 3.3709884 5.8942866 3.6705823 -2.3208692 1.8205838 -2.890361 3.0640545 6.5440283 -10.581901 -0.7985776 -2.5504615 2.2496264 -4.7670026 0.7641967 -2.4040756 2.906048 -3.3715947 -4.780205 -3.8495047 4.7645507 -4.1828156 -6.4465337 7.322696 -3.2514899 -4.440762 -5.946983 -0.42224196 0.41498634 -0.41212258 -3.8382363 6.223836 -2.846493 9.081226 4.485713 2.2084174 -1.2503649 -0.39346755 2.8288193 3.0215845 -3.1192067 1.1462711 -0.90013987 0.18030621 1.238069 -6.109398 1.131226 -7.576133 -0.49255124 6.1955037 -5.1748843 7.1473603 4.0824594 0.64210296 -1.8310522 2.9473445 1.1690322 -0.36225224 2.2990692 -3.753923 -3.8114066 3.2509782 -0.28896835 -0.07117592 -3.6637466 3.0178313 -3.0046048 -9.81611 2.67137 1.5232056 -3.4343152 -5.8061852 0.10105177 -0.38278198 -0.8045543 0.86728776 1.7215153 0.8151216
进 -4.460271 -2.5612612 0.39106336 3.9491954 -2.1925936 6.0514965 -12.783095 -0.78381944 3.7720377 -7.4689317 1.6948729 3.2279987 -1.1525551 -7.647397 3.302619 0.04642507 -0.21793307 -3.6756232 -0.9459703 -0.38889092 1.2965481 -2.7079413 2.722209 -1.1674228 5.820708 5.2456393 6.102795 3.164616 -3.1838665 -3.2986739 -6.259392 2.174916 -5.5562153 1.9388456 -6.2701097 5.3797293 3.7031455 -2.1221328 4.0872955 -3.7623599 -2.8046136 -0.49841076 -1.6096662 0.4445998 6.2954326 -1.7759053 -10.18336 0.19487552 -3.1979163 -4.880155 -2.522563 -5.614048 4.322187 1.805352 -10.744254 7.0062985 -2.4705467 -8.306519 2.3535807 6.187523 -1.1320856 -2.3221254 -8.28776 -0.72979057 -0.87791234 3.4754844 3.580593 0.051473204 -5.6976047 -4.047812 -1.4190034 3.1878567 -0.641459 -0.47736943 -6.037733 -2.5574174 -4.7905054 2.9424825 2.3644614 1.3796985 2.5100243 0.016130526 -6.0351973 -1.7445673 0.35946292 2.3069186 -3.7765107 4.6306605 1.7239712 2.5610495 0.11241232 -4.2537227 -1.8004422 -5.771484 -0.8875588 -1.4775534 -8.605211 2.6682446 -0.6283295 -2.400989
“ -2.000517 3.2597296 -0.22623256 -1.0915802 0.51546246 -1.3713357 -0.049221452 2.3459654 2.6568356 -3.5202444 -4.8698564 0.8894463 -0.29849058 0.8375807 3.841644 -0.27321428 -1.2352813 -3.0004618 0.91835374 -1.0205827 1.7659646 -2.1668282 0.36226425 1.139431 2.2221174 -2.6584957 -3.804929 4.1895237 1.4228265 -0.9356402 0.58330363 -0.8960758 4.217932 -2.2606192 2.0718486 1.1228908 0.09316055 -1.1556761 1.1141175 -1.4063544 -2.4222822 -0.08012114 2.5560317 -2.5364726 1.4051179 -1.77468 -1.4854178 -3.1667912 -1.5065756 -1.2394478 -1.523908 -0.63193107 3.2282014 -0.17874488 0.1828383 -0.9632556 0.14181823 -1.1227367 -3.0449083 1.0710762 -2.9205797 0.23363213 -2.7133484 -1.5947154 5.909201 -3.6812816 6.9893866 -5.916518 2.6494765 0.29818878 0.6756864 3.2312796 -0.4001495 -1.9735281 -0.2478946 2.1097233 -2.701832 -2.1754787 -0.17823109 0.23554765 4.4574947 -1.1640201 -1.7866274 0.84726775 0.8323262 3.2575853 -2.951539 -1.6946189 -1.2024782 -2.6486921 2.4012265 -1.1094241 -1.2494137 4.5850654 0.9781431 1.1247733 -1.7602906 0.8136831 -1.7866786 4.8218412
理 -6.271048 -1.4487776 -5.096444 4.736959 0.87358874 2.4360583 -3.6294374 5.7190785 11.68393 -2.486649 4.122707 0.58270985 4.3109922 5.29171 7.298482 -1.1729097 -5.611824 -3.9176419 -6.902284 -11.076623 0.96150184 1.2720941 3.3020322 -0.1830621 -2.3428042 1.2581931 0.31990606 1.3734933 -3.8507469 1.5657321 -2.2164857 -6.690679 0.6531579 0.18580642 2.5806823 2.9430547 -2.5013456 0.012722106 2.5331924 -5.689842 4.106883 -3.9071012 -2.2881274 -6.4408092 -7.9321218 -0.06766991 -1.1286507 -0.1248158 -1.4705192 -0.8569397 -5.7966037 3.9163103 1.07422 -5.6250257 -6.9412556 -0.7337921 -2.1533225 -2.132482 -3.9946527 2.9632308 3.8697274 -0.4940669 1.6395898 3.3878157 -5.8175774 4.8625717 3.6757126 -10.689124 -1.1768458 1.5277203 -1.8052528 -4.228457 1.4923052 -3.183535 -1.8096689 -5.2430406 -7.587092 5.1896405 7.068923 -0.2335149 -2.69063 9.545665 -9.544438 -2.2618518 1.8805496 4.879968 -7.308128 1.7258784 -0.844689 7.392154 3.5427876 1.1182132 -2.5105271 0.00792597 0.1321989 0.23651123 3.4801908 3.1467762 -2.9801621 3.5189884
” -1.6254473 0.94817406 -0.6579815 3.0970845 5.080118 -0.108067185 1.3248187 1.9600564 1.700313 -1.2603735 -3.9932897 2.5835624 2.4208593 0.34419712 4.3987017 -0.008505284 2.1074502 -3.595456 -0.18901208 -3.212488 5.8335247 -1.5883335 -1.1379035 0.7099626 -0.4197265 0.12479514 2.6461978 -1.5365504 4.5039086 -0.0728087 1.4619246 -2.9048367 0.21286793 2.5333183 1.8132755 -2.3499646 3.6284325 -0.46737036 3.3942382 -0.6610426 -1.0336419 -3.6784542 0.2773539 -1.2271699 3.141606 -0.4025627 -2.9003315 3.1012733 0.5828281 -0.8305953 -1.6985434 -5.3629456 2.701144 -2.0495028 -2.682001 3.1740685 -0.7571813 -2.1169138 -3.962843 -3.559997 1.8729643 -1.1878127 -3.5664327 -2.3348825 1.9269338 0.8110397 5.2000175 -1.5832448 4.328167 -0.42616668 -2.9364464 -0.69702005 2.5492346 -3.6123004 -1.9778293 -1.2302753 -2.6652815 1.2837491 3.5257418 -1.1679248 -0.42074648 1.7357575 -3.4412096 0.70600367 2.2343748 1.1817677 -2.6499064 1.1799108 -0.7046464 -3.3677893 4.258693 0.46377707 1.3218615 3.4571724 2.0728285 3.367107 -1.5307804 -2.6146135 -0.29573542 2.810197
种 -3.242122 3.0791812 -0.05665583 3.175993 -5.3329353 5.201599 -3.0044222 5.471916 0.7236685 -5.7547755 0.5534099 9.219931 3.0062597 -6.6317053 -1.3224361 -0.4629423 3.9980094 -7.16312 -1.1245537 1.3392421 -2.9358013 -1.3958803 1.917796 1.394189 -7.107185 -2.3578873 0.3845428 4.6489515 -0.34679067 5.0206685 0.9923001 -5.3751564 -1.7029281 -0.7034589 3.011619 -1.0681872 3.5916104 3.4390984 -4.9338045 -7.5507298 -7.792171 -7.24002 -2.473689 -1.1194271 -0.37606677 0.3233516 7.1581016 3.3162694 1.3130132 7.7581096 -7.531852 -3.5605872 3.6332848 -0.3073856 -9.50752 6.4159427 -5.64431 -3.568812 2.093731 3.004929 3.5213282 0.7572686 -3.7354972 5.1219697 1.9893978 -2.9210315 4.4108815 2.8989537 0.58915937 4.7552176 0.49726906 -4.2498903 -2.8262472 -1.0912856 1.9661162 -0.48905593 -7.937218 -0.8633956 -6.1571317 0.7325995 5.7165413 2.4126759 0.87699014 2.0685077 1.0811787 -2.8249476 -2.7596056 -2.326584 3.9162722 -1.224415 -3.4127886 -2.9482996 2.5907998 3.0566947 -4.5430965 1.2629215 2.2718844 -1.9790865 7.1939163 1.9316964
子 -6.547878 3.3735263 -4.5144987 2.68592 -3.819242 1.1615186 -7.26815 -0.29236776 2.9835236 1.828845 0.65050083 -0.58269465 5.205635 1.1228726 0.6190196 2.2120018 -4.260907 -0.6742916 -8.684053 -5.416266 3.8511286 -5.112516 1.7114516 1.597918 1.7137657 -4.6074495 2.1375403 3.2421181 2.8741105 -1.8665307 1.9292165 1.55794 5.486686 2.2206345 7.812478 -6.4872503 -2.9760733 -6.1185555 3.3000305 -6.0307865 -7.1078634 -2.9682477 -0.24970096 1.524897 6.5034003 -2.1624954 -1.8496382 -4.860451 1.7761699 -2.579051 -2.2500675 -5.8848248 -0.14089288 6.063626 -2.0534568 4.1632094 4.562572 -0.1704773 -7.539872 -1.4991324 2.891616 1.1889638 0.35283837 -2.1897895 2.680575 2.939205 2.1995971 0.044175353 -0.41048175 1.8346837 -6.636417 -3.348024 -0.53502786 -1.4747174 3.0764308 -5.7360516 -1.8281053 -4.989811 1.5164952 0.06190933 -3.156602 -3.7632804 0.21810186 -2.0843406 1.3099829 0.8560715 -3.438995 -4.397427 4.1874204 -2.4408596 0.40857166 1.0603327 -0.81091 0.71763635 0.5904414 11.355406 -5.752959 2.8240812 -5.0173388 2.541088
本 8.077456 8.523424 -7.7228065 -3.0656087 -4.3164673 3.4689531 -4.8948264 3.8825648 3.9876854 0.20537622 -3.0307553 -0.8278305 -4.8497114 0.6239417 -0.72135586 -4.505657 -1.4098127 1.0750152 -1.787356 -2.4457142 0.7422637 2.4609904 5.314635 1.3789521 0.68225116 3.724484 0.2510865 1.2142055 1.409301 -0.34859312 -0.62359214 -0.27951849 4.7597446 -2.7994251 -4.026033 2.380536 1.5219715 3.2564263 -1.2041745 -6.0055113 -2.2401145 0.36683464 1.8476334 -0.06776308 0.7169326 0.71562845 -0.79849637 -8.975243 0.35785887 3.1975243 -3.919253 3.6111686 4.4245276 7.491661 5.9175243 9.2491255 -0.57058895 2.1969054 2.2920306 0.79166776 -4.6619043 -5.6136136 2.62891 3.6662734 2.0704966 6.4841614 6.058237 0.3649129 5.8969674 1.0327147 -0.5998307 1.2396233 3.4705567 -0.85439384 -2.8862743 -4.2466893 -0.716505 4.0112286 -4.258722 -7.846648 2.29469 -3.7691956 -1.988678 -0.3872138 8.171441 1.6209477 -1.9719439 1.4376844 -1.004817 1.6004415 1.7061493 -0.50695264 0.4977339 1.1457608 -0.8747817 4.837959 -0.16489902 1.8564193 2.4343328 -1.5709573
动 -4.7255454 -4.8188505 -0.016008597 4.9543815 -1.4695679 -1.0357746 -7.254018 2.0251725 4.977681 0.022769084 -3.8019826 -4.2493486 -3.0933301 0.07498624 5.92887 0.21983092 -1.9096991 -5.5670805 -2.6945713 -2.7877924 -0.3685677 -2.6687677 -2.6093342 2.055459 -1.0289756 8.0063305 -0.18726051 -2.330165 -5.3856845 6.3896985 -1.2562522 -2.6376543 -1.2280809 -1.3286622 5.8777857 5.8966603 0.8173977 -4.197057 5.2353897 -3.5785527 -8.480687 4.0558314 -4.399129 -0.99298143 -5.7623863 2.7234516 0.29046455 -0.5677501 -4.547935 -2.5283124 8.130589 -2.4866874 7.7497454 -1.9679542 -8.677388 0.35449836 -9.536427 -4.087783 -4.871026 4.0397105 0.06848433 0.32518432 -3.5485096 -0.3053462 -0.029299175 -0.30281717 4.5209813 4.0247893 0.60535306 -3.4804153 -8.084813 -0.84529924 -1.2859248 2.4636164 2.1905584 -7.9708395 -2.265617 4.0554147 0.34826046 -1.0161097 -0.33156288 -0.019210337 -6.529756 3.0726671 3.465079 1.7772151 -1.1785554 -3.5134275 1.3218448 -2.98803 -1.0494794 -6.324575 -0.8157259 0.090308316 3.250545 9.713853 1.2223642 2.2460525 -0.11027126 1.1089115
自 -5.5923467 1.5680703 0.34832492 1.166763 0.9762851 10.557687 -0.28622028 3.1572258 -2.5469255 -10.185336 0.55418915 3.3794713 -0.69265205 -5.638392 8.914196 3.0243804 -0.35627133 -2.0919576 -0.718408 -9.030614 -0.21808665 -2.6187782 0.8506104 2.4496238 -1.9224535 2.4927616 2.3757076 2.4999862 -0.92542934 -0.6741997 -0.036486723 1.6792929 3.199392 -2.6571622 -0.56089133 -3.3205693 5.497019 0.24232757 -1.4923441 1.3421794 -1.1971318 -7.8757567 1.0140743 -3.4801495 4.7354207 4.90567 -0.47414702 -8.28829 -0.6554228 -3.236048 -8.507788 -1.5617139 -1.2077582 2.85149 3.883878 3.7648883 -2.7139316 2.2089033 2.4811983 0.5220943 9.622393 -3.8033247 1.9924543 -8.397575 2.185655 1.4377437 -2.0163329 -5.6997457 5.7433996 -2.7199445 -0.94756657 -2.8759253 2.5093653 -4.858977 1.8257209 -5.226669 -0.20715532 3.15205 0.6663185 -1.9033979 7.765545 -0.77855235 -5.5787473 -2.4258575 0.3054851 3.0702198 -1.4616466 5.5130343 4.0124636 3.323319 0.83632714 -8.23373 1.5718265 1.9179986 -6.6087856 -4.2029004 -2.5848706 2.968435 -1.4691452 5.3195662
后 2.8580112 -2.5037277 -0.05536621 -1.8300304 1.5599374 -0.074261986 -3.7007806 0.32772642 -0.41393128 -4.8455324 -1.4102176 0.3078748 8.834124 -8.835561 8.558201 1.5214185 1.5013351 2.5523944 -0.9945868 -6.101343 -4.713736 2.7069223 -1.2834685 4.508804 -2.035238 4.6936693 7.958014 -0.12652448 -0.7290585 0.78036183 0.75156724 3.1504397 5.483657 0.09367985 1.808146 -1.8693457 10.8786745 -2.3262215 1.3099276 -4.310049 4.104274 0.7816587 1.2161815 -1.2137339 2.1987529 -2.3593566 -2.795674 -2.331708 1.2289644 1.361127 -1.4784582 -4.271204 0.58114195 5.4017158 4.897893 2.4065373 0.19547409 3.972335 -3.8274715 4.816116 11.058124 2.1262178 -3.0982068 -5.958379 -1.2467568 -0.74577135 5.392577 -2.6572528 4.48109 1.90158 -3.7326365 3.2241204 -2.2517102 0.14917879 -2.869118 -4.9287057 -0.24181393 1.6900449 2.793987 -0.7749637 3.4873426 -5.033557 -2.4982545 0.8134675 -0.82447416 4.880433 -4.090086 -2.0013275 2.7917361 -0.31661636 -6.28137 -2.5441263 -2.6429598 2.307995 -3.8365772 0.2419363 -0.3897451 2.3893118 -4.486745 -3.624287
说 -1.8557814 -1.358985 -0.6707135 0.9867419 3.28022 2.530536 2.4053288 -1.0114366 0.39930063 2.5908709 -3.8816595 1.7666287 -1.8995087 -3.8242924 1.6963068 4.34902 -2.4908662 -4.5663896 3.4247277 -3.9528506 4.5734725 -5.2277946 -2.4767752 3.0772223 2.6875942 0.672582 2.901795 1.4726228 5.253915 -1.056811 3.422946 -1.2918239 6.181166 0.7540242 -3.649709 -5.062901 1.9479805 -3.99596 1.9570413 -2.838728 0.5133564 -2.587138 4.4250546 -6.3194127 -0.7215633 0.8960555 -0.93583655 3.6791296 -6.0183415 0.25656468 -5.6689773 1.6700413 3.9719827 -1.8035551 4.3668375 1.7918261 1.0689682 -1.6472536 -6.3175197 2.1131818 4.735954 -3.9526927 -3.9558387 -0.40980136 4.235458 2.599936 6.482369 -6.9015737 1.5334972 -2.5502677 -1.7002765 0.9501588 2.4740634 -2.881948 -2.198241 1.5038097 1.9039932 2.4791706 3.4906192 0.4207306 0.24025059 -0.3513676 -2.397893 -1.2381346 3.4828994 -2.1516476 -3.021305 5.44505 -1.2882161 -3.084309 -1.6703795 3.6859477 6.6206803 5.593266 2.456977 4.65161 -6.589246 -4.603263 1.1070355 1.7195673
from 1.4122794 -4.593344 -4.00599 -2.6615791 -0.3874753 -2.7434664 6.345386 -3.287652 -0.59119344 7.3472 1.9714508 2.8749874 2.8606138 2.9833987 -6.6875544 1.0320711 0.7228282 0.3739694 2.7497344 1.963109 -7.8797956 2.7489789 -1.0024817 -0.19562991 -1.7007592 -0.14824274 1.2770852 -2.0462806 -4.5006366 -0.9675848 -3.952436 4.155493 -3.6249573 -3.9606013 -0.42190117 0.07351138 -0.7034859 1.3429266 -1.9997784 6.733231 -1.2386028 2.548861 -2.47914 1.6639056 -1.5083997 0.5771141 2.5647373 1.8742698 1.5072725 3.078882 1.8814958 3.534107 4.0146 -5.1317916 4.2832913 -4.0732307 -0.39259994 -4.917716 3.924014 -4.2746415 -5.5243483 2.1116672 4.9134893 -0.69134486 2.513008 -2.0182595 -1.7074897 3.173513 -5.9852204 1.7994932 4.1563916 -2.570182 1.3259339 1.102414 -1.4740396 -0.76006657 3.2827544 1.0503598 -3.882234 2.4220173 -0.8519171 -6.946476 1.3293558 6.278327 -0.72900945 -6.7552876 8.8018875 -4.186454 4.252954 -3.9073715 -0.17842607 4.538806 -1.3034819 1.3240001 -1.0905497 -4.105581 -1.0261891 -1.9670737 -3.9250348 -4.908725
经 -2.2324839 3.6126862 0.7630449 -2.6023536 5.567654 11.46819 -3.8839428 -1.1253506 -4.9229107 2.2194757 0.8353374 2.3497033 -5.679747 -2.3433697 0.537278 -0.20733972 -2.941404 -2.0689254 -1.9843658 -2.6138334 -3.0930264 -0.27036974 4.442693 -1.643876 3.08776 -6.737213 -4.6926575 2.0020862 -1.4319967 3.9243767 1.4291694 -2.8970857 -2.021575 -10.126075 5.1325655 -5.4687796 -0.5741164 -3.2871032 -2.242166 -4.155083 -7.1176505 -0.8691988 -1.1499319 -5.284672 4.257051 -2.3315413 -0.90507555 3.1811619 4.6480966 -8.419303 4.3349457 1.2196407 8.288466 3.7477715 -2.952769 5.403477 -3.5864224 -0.46820736 0.73660916 -6.949725 4.3757873 -4.631123 -8.204067 -3.5604732 -0.51804465 4.319793 -5.5697684 0.65638113 7.078462 0.8549191 2.338336 13.07798 0.68475854 -3.0029764 -5.7111526 -2.4027624 -6.2390194 0.5106525 2.8781743 -2.6255136 2.466303 -5.043511 1.2848686 8.98273 -4.022363 3.666053 -0.36060637 2.8179703 -2.6217668 -0.1226262 -7.874263 -0.45433813 2.7238023 5.2601237 -1.0169764 4.194848 -7.446523 1.7018963 -5.6444364 -2.4760478
其 -5.0202427 -0.28571302 -2.8829813 -0.46237817 -0.9841644 2.9357746 -3.4495425 0.51943433 0.9533435 -2.2683103 -0.04458129 0.2394786 -0.40891075 -1.4631124 3.2046723 4.0637574 0.9399934 -1.9600945 5.9851985 2.1345127 -2.0039437 -6.9440885 1.5451685 2.0904288 5.4020963 8.663951 -2.4195602 5.538822 -1.5792568 2.7049863 3.8675876 -1.9083668 -3.9255102 -0.23334159 -2.569649 -1.7639421 0.10491239 -2.148819 -5.1728888 -6.346646 -1.1777391 -4.6088576 0.1062491 -7.099524 -2.224802 2.8981256 3.3026357 -1.6506382 1.7274369 -0.73814106 0.5539223 -2.6234353 -9.249968 0.6410411 -0.042160425 4.672192 -0.9636565 -2.910767 -3.8911347 5.444749 0.97694665 -2.412974 2.8898513 -0.49404952 -1.848739 7.093127 2.6593413 1.1825813 4.746109 -3.9685571 -0.53867716 2.3532119 4.4475603 0.9943969 -2.5463417 -1.9243007 4.3702607 -2.2291296 7.7876773 -1.7510039 -2.1196227 -1.2741444 -0.5517492 1.2398932 0.80042076 -1.0923551 -4.5800896 0.89965016 -1.4138893 -3.765164 0.31031394 -1.8987664 -0.9487327 -0.0086074555 2.7673259 5.248042 -0.18160564 -1.7253218 1.5943431 2.8931463
与 -4.46208 2.5386937 2.3994458 4.5490384 3.6130018 3.3088589 -3.5266917 1.1539801 3.3288243 1.5028919 -1.985691 1.3738453 4.299212 -1.5322943 2.8749905 0.65337056 -0.068569444 -0.9107742 1.3758258 -4.0810766 -0.051470827 2.3910615 -2.764793 -1.5330209 -2.7793899 3.7069316 -1.2208711 4.2003827 3.1056743 2.2152443 -0.0136632975 -5.0077257 0.5644653 2.9325829 1.2166104 1.1126403 2.5893755 0.52716 0.8001152 -2.4803429 -0.98359174 0.79683983 -1.1653318 -5.0662713 0.99474955 -3.0999215 -5.086006 -0.4469904 -1.3768561 -1.4680027 0.08435576 -0.2165459 2.8962379 -0.17958693 -4.832831 5.4667807 -4.315319 -0.56136006 -3.2008643 1.3732303 2.1610878 -0.71346873 -2.2070992 -0.91089475 -1.7521701 3.605876 2.524504 -0.6336611 2.5980191 -1.5492676 -4.3675213 2.347299 3.1190045 -2.1684194 -3.0395103 -0.1704802 -3.4351242 -1.6999261 2.4896166 2.9657934 -2.5450902 -0.1153871 -1.627159 1.1494243 1.6135515 1.1609081 0.97924435 -1.0138564 1.8803908 -3.2381067 0.70113605 -0.55366844 -0.6303101 0.8795821 -2.3680997 3.6071584 -0.6425831 -0.07723979 -1.8843769 2.2297127
就 -1.0531211 -0.8427232 -2.089106 1.2834145 0.013355709 -0.32509887 -2.604589 -0.11390066 1.8483876 -6.165918 -0.27736557 -0.57566595 1.8548403 -1.4907323 2.7318435 1.0771326 -2.3022335 -6.106042 2.0143316 0.48164696 -0.65948826 -1.888038 3.8486335 4.3178954 -2.4159799 -0.13076057 -2.637627 2.6687193 2.1165845 -0.55623823 4.810849 -2.1458454 5.666302 0.41416988 2.5213733 -3.1451626 -1.7972169 -1.5119585 3.6792192 -2.9355228 -0.15692206 -1.989439 -2.6460128 -3.142019 1.1141905 -2.1868236 1.5361583 -2.2318804 -4.2776804 0.3885646 -3.176519 -2.5757449 4.418672 -0.8934042 -1.3539715 1.718129 3.4258645 0.79965806 -2.638328 -0.3805268 3.866607 1.6142079 -5.62684 2.3909905 2.0563488 -0.40581742 4.07443 1.2569873 2.4249358 -1.1943699 -0.65108955 3.5679736 -4.0056953 -0.51649994 -1.122419 -1.1704654 -2.7256296 0.37256366 -3.9283373 -0.29832914 5.481457 -3.9764636 -1.7512395 -1.5378344 -1.0381024 2.7216408 -5.0934286 -0.9394018 -1.2925987 0.8572058 -0.14372551 0.17393324 1.7856793 2.6609912 1.2800297 3.279212 -2.3576689 -3.2545416 1.8993748 0.6466062
have 3.8698409 -1.3149741 -0.1720268 -1.8848543 -2.983483 -8.802971 4.817054 -1.0557872 -3.5283177 6.3724365 -0.059715908 4.338204 0.2134401 -1.0630661 -10.237222 1.7880266 10.669028 2.7218482 -2.5075946 1.5312524 1.7335206 2.4831953 -0.07930409 2.3169267 1.3861806 -1.7724152 2.8824384 -4.298835 -1.4912897 3.8784804 -0.24677888 5.7173705 -2.5063994 0.4422495 1.0918335 1.8387845 -3.8176596 1.9869782 -6.4103904 12.5108795 -1.2111553 -0.70430464 8.655686 6.7200027 1.3072146 1.8075228 3.8407133 1.4512815 -3.5574296 -0.95065904 1.8101588 1.9474996 -6.0344515 -1.6996348 -1.7136191 -11.383866 -0.4814891 1.610873 0.732081 0.66850483 3.0949392 -2.2866423 6.322273 0.9074525 -5.98107 -1.5175008 -5.3484063 0.10848149 0.26296675 5.732069 6.2043905 2.1713896 4.9900723 -1.5701482 -0.76537025 -2.1549804 11.683944 1.9284053 -1.9477241 -1.3250586 -3.5606766 -0.24213272 -0.66026443 0.8610871 0.48971593 -2.2656507 5.135084 3.438099 0.7223814 -3.2891834 1.3882174 -1.7525219 0.831349 -1.4741136 -1.1755683 -5.40957 1.9339824 3.4740326 -4.1841545 -1.8306332
家 -4.580201 0.37325063 -2.906987 -2.4814556 0.59394485 -4.46113 -2.0031707 2.7426171 1.726618 1.6519636 0.08075255 0.8275591 0.19350417 -2.032855 3.815572 4.923729 0.015470478 -5.4908214 -5.0237403 4.2681007 -2.982142 1.3737758 2.7931817 -2.0809124 -7.0437427 -0.0152626 -1.9665136 2.0974596 3.4239185 -3.8348114 -0.92883956 -8.3289175 2.5531063 0.5008124 5.906453 2.1746128 0.53530383 -1.6315795 -1.6564944 -6.827745 -5.610611 -2.4307973 5.4792075 -3.157127 4.4536686 -0.16885942 -0.5559166 -1.0465242 -4.3229995 0.39824033 2.0849445 -7.676821 7.1397567 -0.7862855 3.0088644 3.0877664 -1.5732018 -5.55807 -1.6504391 -3.1123586 2.32827 1.5853758 -6.488473 -5.0471582 0.48762926 6.600676 3.8687942 -4.4970512 5.0708346 3.2117448 -0.8164978 -4.0439734 2.5955062 3.417901 5.420645 2.663713 -1.7404716 4.199305 -1.46216 1.8820868 0.89938223 1.0129222 -3.9821818 -1.7940215 2.981687 6.512499 -0.68207073 1.9408265 1.5013618 -1.961835 -2.3257074 -2.8226285 3.1954029 0.1978269 -3.4099498 -0.42811632 -5.6015706 3.5980515 -3.5387244 1.0156063
at 2.479098 -0.8519971 6.136491 2.722662 -2.5951796 -5.8876185 2.049672 -4.7160172 -2.0057578 4.773606 -0.35542613 -0.16956474 -0.30989742 -0.8285415 0.51597935 -0.21823594 4.8980737 2.1037366 2.2877264 2.9518228 0.21922903 3.3855882 -2.1934826 -4.0039597 1.4297124 -1.743446 8.1612835 2.011953 -3.8297946 -0.45062652 0.30490935 0.54454947 0.8536012 -7.893369 -9.3658905 -5.3897715 5.4121003 1.7649271 -2.9659054 6.685641 -1.2380612 0.20440789 0.35019612 0.13115391 -4.315191 5.6317554 -4.0439925 -2.0873237 -2.289197 3.4355094 -2.4309812 4.032715 -4.3853135 0.08298363 2.4475758 -1.5182557 1.7594879 4.2026267 3.6748786 -6.923073 -7.033592 4.756944 7.6970215 2.2819784 -3.1356187 -2.7617638 -1.5033404 4.9397035 -5.2159214 -0.92324775 5.9141474 -3.9469101 0.13311334 -1.5173965 1.2393968 0.2371778 3.7124598 -0.99296266 -0.87030315 3.136859 -0.9896792 0.5872883 -0.06898483 1.2273532 1.5539435 -5.9673305 4.5804486 -2.768313 1.1965438 0.68482447 0.19174674 1.8761013 -2.888938 -0.845731 -2.6167204 -9.691284 -10.284524 0.23397367 -6.4582047 -3.4233117
下 -2.5354393 3.7141054 -4.4324822 3.3459406 -0.302266 2.0677822 -0.8199603 1.124799 -0.45694393 -3.3282788 -3.7608662 2.9398549 1.7724458 -2.6121085 2.7362556 1.5046546 -0.95216376 1.6642568 1.1325521 -4.277208 -1.2678996 -0.5862759 -1.1466272 5.8285184 -0.8063838 2.9850984 3.729271 -0.28196248 1.8558425 0.5337112 -0.20903377 2.9098623 3.8839345 -0.112131655 -1.7398374 1.6662611 4.913307 1.6364955 0.2659465 -5.300586 0.25240377 0.98203784 -2.5773253 0.26570258 -0.27341336 2.4961157 -3.2825952 -4.110475 -2.154522 -0.29632032 -1.4602487 -4.860502 2.6674578 2.688754 -0.90593433 0.15233308 -3.0002594 -3.3395994 -8.77348 1.6276613 4.3298225 4.7033534 -8.876407 -0.33058956 -2.7244098 0.5183274 0.28528827 2.1930077 2.1477382 -3.1276963 -4.531776 -0.95261294 0.16134737 -2.0004454 -2.8902617 -1.721104 -3.1391685 0.29648727 -0.62652886 -1.8288374 2.7941988 -4.073857 -5.0319443 -0.31822193 2.0400846 4.120397 -3.0010471 1.2126111 -1.1353616 2.7649312 0.5348662 -0.5306034 -1.9151258 0.6239211 -2.2072256 3.9919367 -5.709785 -2.1416478 -0.39908528 -1.3280994
化 -3.2279696 4.9449477 -9.297081 3.5795908 1.5617906 3.1337063 -3.436414 3.8766177 3.683564 -1.0154188 -2.2060118 2.8166938 2.2067473 -5.7406363 4.3117642 -1.807042 1.9969227 -0.76082116 -8.383365 0.28670144 -0.45840424 2.203761 -0.69635016 -1.6664401 -5.041232 0.9528312 -7.8633046 -0.24899234 -3.1429758 2.4382644 2.0716898 -3.0666864 -2.2400289 1.3942013 4.367927 -0.031294428 1.5541226 -0.25630558 0.7446951 -5.625186 -5.594967 1.1249714 -6.8978105 -5.0649014 1.9828942 -2.4953873 -0.15329823 -1.657032 2.2289846 -8.3024 0.95863885 2.0562055 6.704127 1.1279925 0.79405063 7.6312194 -6.93113 0.8882405 2.5234447 5.7414756 3.2293656 -2.6627364 1.6848667 3.799638 -0.9466859 2.0161562 2.210836 -0.08893872 3.9878316 2.7644002 -4.263978 1.6342056 5.981862 -7.149136 1.6210088 -2.0812657 -5.9929566 -1.9386059 2.2059495 -2.9303265 -0.5467388 0.6978088 -4.7853136 -2.7802832 3.299929 1.476431 -4.431927 -3.5071783 -3.7785416 -3.3457658 1.9776245 1.3355371 -0.28241247 -8.640497 -3.536199 6.7145615 1.8690261 5.7865067 6.633655 1.7796075
